tree
version=v3
num_class=1
num_tree_per_iteration=1
label_index=0
max_feature_idx=31
objective=binary sigmoid:1
feature_names=avg_bal_l3m avg_bal_onbs_l6m avg_cr_txn_amt_vs_os_l6m avg_total_num_txn_l3m avg_total_num_txn_l6m dpd_l3m dpd_l6m max_dpd_loan max_os_onbs_l6m min_day_to_matdt num_cr_product_l3m os_amt_long_curr os_revl os_revl_l3m remain_term remain_term_autoloan total_num_txn_l6m vol_os_l6m avg_bal_l6m avg_total_num_txn avg_txn_amt_os_onbs_l3m bal_l6m ca_bal ca_bal_l3m ca_bal_os_onbs_avg ca_bal_os_onbs_l3m_avg ca_td_bal_legacy max_net_flow_txn_amt_l3m min_ca_bal_l6m total_bal_avg total_num_txn total_num_txn_l3m
feature_infos=[-15063974862.837128:27047150956.537281] [-10.436595626373711:35.033824378121125] [0:1532.9345511082945] [0:8174489343.2904482] [0:4089467646.1126842] [0:493] [0:651] [0:87] [1000000:2584094891942888] [0:3467] [1:10] [0:24722594948] [0:708973719621743] [0:1635062528569815.2] [0:304] [0:115.56666666666666] [0:3375] [0:0.99999982303774826] [-41778658077.907616:13526792779.159782] [-17148608116:17148608117] [-766.8302552156598:765.82446298287562] [-219431638223:71159561686] [-17770563461:17770563460] [-5924312015:5924312014] [-16.951555842715265:15.951555842715265] [-11.550967069425267:10.550967069425267] [-10171618444:10171618443] [-18447803048:17961557725] [-1243033176:1243033175] [-75873315017.740723:41118032947.777771] [-664:663] [-2551:2554]
tree_sizes=3317 3374 3362 3379 3387 3376 3413 3402 3420 3422 3408 3397 3411 3403 3410 3428 3401 3413 3422 3419 3418 3438 3430 3403 3407 3444 3421 3420 3417 3417 3432 3423 3428 3417 3416 3419 3426 3445 3437 3420 3423 3427 3438 3434 3425 3431 3438 3444 3438 3438 3431 3455 3428 3455 3432 3441 3462 3455 3419 3440 3433 3445 3418 3436 3429 3432 3437 3430 3445 3448 3424 3452 3439 3421 3424 3436 3424 3430 3441 3431 3450 3433 3441 3435 3426 3434 3444 3428 3423 3433 3441 3455 3443 3424 3430 3442 3448 3440 3418 3418 3422 3457 3426 3449 3438 3437 3436 3442 3434 3419 3432 3451 3420 3415 3400 3437 3450 3449 3444 3431 3411 3436 3433 3441 3427 3432 3433 3434 3462 3414 3438 3467 3428 3417 3404 3418 3442 3417 3441 3428 3436 3423 3439 3418 3425 3450 3422 3457 3443 3423 3452 3437 3442 3436 3433 3415 3440 3417 3428 3431 3400 3405 3409 3445 3404 3457 3428 3436 3411 3431 3424 3415 3437 3443 3420 3427 3420 3437 3430 3448 3427 3429 3418 3404 3425 3394 3438 3449 3402 3389 3435 3409 3419 3410 3431 3400 3433 3427 3417 3422

Tree=0
num_leaves=31
num_cat=0
split_feature=6 7 6 12 12 5 5 23 13 16 2 2 24 3 15 10 1 8 12 29 29 5 3 11 4 11 20 4 20 6
split_gain=4333.05 1546.52 451.694 303.323 269.743 193.435 192.744 187.572 184.118 146.824 180.927 143.575 134.336 129.522 117.971 110.603 109.445 104.172 90.9316 90.8838 87.1339 87.5138 84.7578 84.4899 108.402 82.4894 97.5818 99.0415 82.2973 81.5635
threshold=10.500000000000002 1.0000000180025095e-35 46.500000000000007 4886623.0000000009 7116079.5000000009 3.5000000000000004 19.500000000000004 153.50000000000003 20521040.833333336 70.500000000000014 0.16624184565178726 0.17840878510105004 0.0001849423013911091 2103890.275883839 37.850000000000009 2.5000000000000004 8.3574651783414472e-06 271875836.50000006 3498255.0000000005 170.24193000000002 52978.296290000006 23.500000000000004 2566423.4365740744 302440280.50000006 1781075.8055555548 144500001.50000003 0.060348693864298801 1879328.6020833326 0.053706556074059206 134.50000000000003
decision_type=2 2 2 2 2 2 2 2 2 2 2 2 2 2 2 2 2 2 2 2 2 2 2 2 2 2 2 2 2 2
left_child=1 5 3 12 7 -1 19 9 11 -3 -11 -4 16 17 -6 29 -2 -8 -7 28 21 -18 -15 -9 -25 -23 27 -27 -5 -13
right_child=2 4 8 6 14 18 13 23 -10 10 -12 15 -14 22 -16 -17 20 -19 -20 -21 -22 25 -24 24 -26 26 -28 -29 -30 -31
leaf_value=-3.7730746144157021 -3.7344624143527283 -3.6872823904167493 -3.1840417521931892 -3.0880846391774819 -3.7080973863200311 -3.7537593826245481 -3.4212690593709092 -3.751708396802699 -2.9601418218232105 -3.4238211102489857 -3.6545894369090988 -3.5341597805658571 -3.6493016992464087 -3.6949928753451995 -3.5917401328668879 -3.2400167347856854 -3.5792829438322187 -3.0283412259014217 -3.7054073464487347 -3.596720055228058 -3.27733338984735 -3.2213584072548542 -3.3473021180879683 -3.5937241712821835 -3.7184461808206231 -3.5572083028098263 -3.638949547230613 -3.0814209507736163 -3.519891647748163 -3.2542848676033809
leaf_weight=1344.3506069481373 1.6078611910343195 42.898629833012819 1.6748554073274098 0.4689595140516738 7.1907125487923649 83.184485230594873 0.62527935206890095 43.367589347064495 0.6699421629309662 3.1487281657755357 6.5207703858613968 4.5556067079305649 14.604739151895044 0.58061654120683703 22.443062458187342 1.3398843258619306 7.9276489280164206 1.2952215149998663 34.345701552927494 3.7963389232754707 0.89325621724128801 0.89325621724128756 1.7865124344825742 5.2032174654305008 26.73069230094552 0.55828513577580474 1.4068785421550272 0.53595373034477234 0.66994216293096542 0.75926778465509404
leaf_count=60200 72 1921 75 21 322 3725 28 1942 30 141 292 204 654 26 1005 60 355 58 1538 170 40 40 80 233 1197 25 63 24 30 34
internal_value=-3.75552 -3.76237 -3.51798 -3.55601 -3.68794 -3.77039 -3.43143 -3.70369 -3.35887 -3.66745 -3.57944 -3.39093 -3.59643 -3.30882 -3.61997 -3.443 -3.54057 -3.15627 -3.73963 -3.53796 -3.51505 -3.5338 -3.43258 -3.72898 -3.69812 -3.42758 -3.50123 -3.32417 -3.34209 -3.49418
internal_weight=0 1619.38 46.6503 37.6507 157.503 1461.88 9.22287 127.87 8.99956 52.5681 9.6695 8.32961 28.4279 4.28763 29.6338 6.65476 13.8231 1.9205 117.53 4.93524 12.2153 11.322 2.36713 75.3015 31.9339 3.39437 2.50112 1.09424 1.1389 5.31487
internal_count=74605 72516 2089 1686 7053 65463 413 5726 403 2354 433 373 1273 192 1327 298 619 86 5263 221 547 507 106 3372 1430 152 112 49 51 238
is_linear=0
shrinkage=1


Tree=1
num_leaves=31
num_cat=0
split_feature=6 7 15 5 5 23 12 6 16 13 19 24 16 12 11 11 8 28 16 16 31 17 23 7 31 0 16 24 1 31
split_gain=3227.67 1402.52 214.97 210.079 186.789 121.94 113.581 125.312 111.878 112.618 106.325 104.445 82.2934 80.9053 79.6096 84.054 85.7577 62.7637 98.6649 61.3083 78.6356 57.8854 55.5659 85.8413 70.2161 54.9766 54.5183 50.6558 50.5129 51.0114
threshold=10.500000000000002 1.0000000180025095e-35 56.016666666666673 16.500000000000004 3.5000000000000004 153.50000000000003 1296322.0000000002 70.500000000000014 68.500000000000014 7417472.3333333349 985934.94444444461 1.0507312572862668e-05 50.500000000000007 3498255.0000000005 344000002.00000006 640015531.00000012 649999990.50000012 9.5000000000000018 52.500000000000007 85.500000000000014 46.500000000000007 0.087719296921944426 153.50000000000003 5.5000000000000009 44.500000000000007 60330.007143333343 84.500000000000014 0.00031751974051491555 0.0015430604466633534 37.500000000000007
decision_type=2 2 2 2 2 2 2 2 2 2 2 2 2 2 2 2 2 2 2 2 2 2 2 2 2 2 2 2 2 2
left_child=1 4 5 19 12 -3 7 10 9 -4 -5 -12 -1 -6 -10 16 -16 18 -11 22 -21 -7 23 -2 -24 -25 -18 -15 29 -14
right_child=3 2 8 6 13 21 -8 -9 14 17 11 -13 28 27 15 -17 26 -19 -20 20 -22 -23 24 25 -26 -27 -28 -29 -30 -31
leaf_value=-0.021824977635506553 0.088174171215069819 0.072618135704646106 0.056115402827402572 0.2913299521768522 0.0017171115759409762 0.057222595220994321 0.28856333012827412 0.35705020275704064 0.051421736553771351 0.50120579979815116 0.24470209504035659 0.098857166840384897 -0.0071199718446322453 0.076980916596108562 0.20497649026747988 0.10907704854284653 0.59047834007151112 0.13309611591691578 0.065941476836267041 0.44962970035238503 0.16015828033137219 0.0070849676719604918 0.079969036786621345 0.19256190241602 0.32090963680909673 0.40352561292892342 0.26129274313496559 0.017671631158401573 -0.017361700809861057 0.020431171998220178
leaf_weight=880.10471312329173 3.5120019540190759 52.667821208015084 25.079968694597486 3.5475660581141772 83.324639964848757 20.520618872717023 11.127319701015947 2.4806848037987939 3.2426409907639018 0.80661585181951412 4.2510123308747998 11.036483572795985 173.39887753129005 17.544599378481507 6.2854827940464002 4.8232749458402395 0.6491704825311897 4.8809175435453653 0.54568774625658989 0.78885524161159937 2.2867949530482292 48.189241958782077 16.087489055469636 2.289752840995789 0.79323017597198386 1.1647779382765291 0.60982632264494896 18.481560626998544 213.08121943846345 55.427908673882484
leaf_count=40077 131 2171 1059 124 3725 871 322 75 128 31 145 411 7896 749 235 187 25 188 21 29 88 2113 613 80 28 43 24 789 9703 2524
internal_value=0 -0.00672694 0.061565 0.18098 -0.0147011 0.0439974 0.223821 0.190024 0.107007 0.0797513 0.168026 0.139412 -0.0174052 0.0152515 0.16168 0.190588 0.242699 0.174853 0.325566 0.129355 0.234403 0.0220589 0.115806 0.17521 0.0912909 0.263693 0.431029 0.046555 -0.00860267 -0.000446355
internal_weight=0 1609.66 168.301 59.366 1441.36 121.378 32.4431 21.3157 46.9236 31.3132 18.8351 15.2875 1322.01 119.351 15.6104 12.3678 7.54448 6.23322 1.3523 26.9229 3.07565 68.7099 23.8473 6.96653 16.8807 3.45453 1.259 36.0262 441.908 228.827
internal_count=74605 72516 7053 2089 65463 5155 1077 755 1898 1299 680 556 60200 5263 599 471 284 240 52 1012 117 2984 895 254 641 123 49 1538 20123 10420
is_linear=0
shrinkage=0.025


Tree=2
num_leaves=31
num_cat=0
split_feature=5 6 23 17 6 11 6 31 12 7 3 3 14 7 15 12 0 24 29 29 2 20 8 4 13 3 18 1 0 4
split_gain=2771.71 1004.91 243.06 145.399 142.143 136.043 105.605 103.726 77.6827 66.517 63.7076 59.9818 67.6652 58.2972 49.0302 48.0833 47.0519 45.0545 47.8996 56.439 45.4257 65.7855 63.7374 49.9144 69.96 43.2281 56.6617 57.8102 42.918 42.0346
threshold=4.5000000000000009 10.500000000000002 1.0000000180025095e-35 0.087719296921944426 7.5000000000000009 388915036.50000006 36.500000000000007 27.500000000000004 6998714.0000000009 1.0000000180025095e-35 2091527.1351010103 1694705.6344905098 66.01666666666668 15.500000000000002 50.216666666666676 7116079.5000000009 1208173.5753450003 0.00038445329654982619 607192.38888500014 773803.1481450001 0.14908536110070228 0.05061775139572363 513333343.50000006 3380398.776190477 19129402.83333334 2492540.0777777783 16244.584804166667 0.0014986506059403769 1.0000000180025095e-35 1108394.0440170944
decision_type=2 2 2 2 2 2 2 2 2 2 2 2 2 2 2 2 2 2 2 2 2 2 2 2 2 2 2 2 2 2
left_child=4 2 5 15 7 29 8 28 13 16 -10 12 -7 14 -3 -4 -9 20 -19 -20 21 23 -23 24 -13 26 -15 -28 -1 -2
right_child=1 6 3 -5 -6 11 -8 9 10 -11 -12 17 -14 25 -16 -17 -18 18 19 -21 -22 22 -24 -25 -26 -27 27 -29 -30 -31
leaf_value=0.028447893275525372 0.11510596764520015 0.06978432491496224 0.0428885598199574 0.0092722855539997488 0.077633739924455381 0.36292158591474366 0.20746674625993575 -7.6842421294790639e-06 0.24580298382420951 0.063726436089858868 0.13330243878364204 0.13349032235653105 0.11552615663404207 0.059751952631659423 0.14749810747989742 0.089748854796532274 -0.019616431819847187 -0.010413607691359407 0.31967469311017038 0.070148585789988185 0.10041278793027103 0.13705524389294624 0.47080343326802687 0.031830813908136975 0.37342857034672461 0.083675300214860554 0.30279806324213854 0.067043678176437013 -0.020969840403586713 0.049221690593630407
leaf_weight=11.108397942036389 6.9243001826107493 15.691400099545723 45.967897348105907 103.93646915815771 10.154606290161608 1.3504838924855023 18.405546562746167 234.68888120353222 6.156812032684682 8.6646674517542106 6.4333658535033464 3.1402769312262597 1.4149146247655151 1.1659083869308222 7.4987599384039632 19.487422648817301 113.45503984577954 3.2617776338011018 0.72379560582339797 2.607504503801465 10.305736213922499 0.61436082795262315 0.85582595318555832 1.7360789626836775 1.0017995852977035 2.2819941956549883 3.3456073645502329 0.80685463547706593 979.41979943588376 48.062555320560932
leaf_count=514 263 531 1909 4519 363 45 464 10710 148 326 178 117 47 33 243 734 5242 119 27 97 381 23 30 62 33 72 96 25 45380 1874
internal_value=0 0.0669578 0.0447564 0.027653 -0.0155501 0.080088 0.157289 -0.0162524 0.136 -0.004695 0.188317 0.126031 0.236342 0.114607 0.0949138 0.0568399 -0.00639789 0.11345 0.0576855 0.124363 0.134276 0.181767 0.331337 0.144358 0.191522 0.174696 0.21375 0.256989 -0.0204156 0.0575183
internal_weight=0 313.177 251.391 169.392 1357.49 81.9994 61.7862 1347.34 43.3807 356.809 12.5902 27.0126 2.7654 30.7905 23.1902 65.4553 348.144 24.2472 6.59308 3.3313 17.6541 7.34834 1.47019 5.87816 4.14208 7.60036 5.31837 4.15246 990.528 54.9869
internal_count=74605 12070 10280 7162 62535 3118 1790 62172 1326 16278 326 981 92 1000 774 2643 15952 889 243 124 646 265 53 212 150 226 154 121 45894 2137
is_linear=0
shrinkage=0.025


Tree=3
num_leaves=31
num_cat=0
split_feature=5 5 23 6 17 31 11 14 7 6 6 11 0 3 19 16 0 16 12 19 23 29 18 28 31 19 19 12 0 0
split_gain=2501.87 737.895 204.969 129.404 105.495 102.614 89.619 63.1721 60.1093 54.3531 47.7053 53.2538 45.8757 45.4193 45.8284 41.52 41.3219 39.9399 36.8751 40.4566 48.7993 51.8091 42.2468 52.7745 35.338 34.8113 54.2704 57.9529 41.9607 35.528
threshold=4.5000000000000009 10.500000000000002 1.0000000180025095e-35 7.5000000000000009 0.090909091069642581 27.500000000000004 396666661.50000006 46.116666666666674 1.0000000180025095e-35 78.000000000000014 55.500000000000007 543647619.00000012 1208173.5753450003 1694705.6344905098 1212930.734299517 66.500000000000014 1.0000000180025095e-35 64.500000000000014 6086745.0000000009 1566144.9250000003 249116.16666666672 325348.66128500004 42598.39345083334 495.50000000000006 41.500000000000007 5259113.8750000009 1007093.5446428573 5713860.5000000009 1263616.2703200001 97179.979813333353
decision_type=2 2 2 2 2 2 2 2 2 2 2 2 2 2 2 2 2 2 2 2 2 2 2 2 2 2 2 2 2 2
left_child=3 2 6 5 18 16 -2 25 12 17 11 -9 15 14 -8 -7 -1 -6 -4 20 22 -22 23 -20 -5 26 29 -28 -27 -3
right_child=1 7 4 24 9 8 13 10 -10 -11 -12 -13 -14 -15 -16 -17 -18 -19 19 -21 21 -23 -24 -25 -26 28 27 -29 -30 -31
leaf_value=0.026983687259320623 0.056451123380510476 0.11323596208147989 0.038100700511523145 0.051805744134797382 0.00037092051090670969 -0.0092075705976325268 0.036523614713056256 0.16482782243539457 0.058465272464240083 0.26884482448863689 0.22346618080167763 0.072597002309247066 -0.019492796979763836 0.09849786531646787 0.25613535603828957 0.012011180729352526 -0.020865062321668747 0.036180561808975657 0.052196226255489656 0.052035983126711149 0.36837653161893769 0.12246790704892628 0.048661609903035204 0.37522850900956911 0.17960198135472302 0.20996347348958311 0.05253174674367235 0.15284402395387153 0.02577463714450072 0.2319229894985512
leaf_weight=11.414375696331261 62.960004981607199 3.7639984879642787 52.930601201951504 9.3405504766851646 75.052747139707208 132.9309182073921 0.80026352405548395 21.063077157363299 9.201033301651476 0.50822298973798652 6.4976658001542082 4.8053676504641762 111.3468758109957 26.937574373558164 2.3029098715633154 101.75624160841107 959.97471939958632 26.283641759306192 0.64121038652956641 15.746542016044257 0.88800244964659247 1.3488341644406316 4.7008378468453884 0.62340397387742996 1.5812814198434342 3.9164856150746337 13.695093745365741 4.8829418141394845 0.96312964148819435 2.7121237311512232
leaf_count=514 2279 91 2124 315 3239 6106 23 509 326 11 118 115 5242 876 59 4604 45380 1090 22 558 31 45 160 21 48 95 403 106 26 69
internal_value=0 0.0610951 0.043303 -0.0153926 0.0276401 -0.0160982 0.0734031 0.138696 -0.00460056 0.0109523 0.162906 0.147695 -0.00627748 0.108931 0.199501 -7.4917e-06 -0.0203028 0.00965888 0.0497471 0.0754873 0.120509 0.220091 0.0831686 0.211438 0.0703083 0.112519 0.100621 0.0788972 0.173609 0.162941
internal_weight=0 334.025 271.725 1337.55 178.724 1326.62 93.0008 62.2999 355.235 101.845 32.3661 25.8684 346.034 30.0407 3.10317 234.687 971.389 101.336 76.8794 23.9488 8.20229 2.23684 5.96545 1.26461 10.9218 29.9338 25.0542 18.578 4.87962 6.47612
internal_count=74605 12070 10538 62535 7301 62172 3237 1532 16278 4340 742 624 15952 958 82 10710 45894 4329 2961 837 279 76 203 43 363 790 669 509 121 160
is_linear=0
shrinkage=0.025


Tree=4
num_leaves=31
num_cat=0
split_feature=5 6 17 31 21 6 4 16 0 23 6 31 31 8 12 0 17 12 20 31 14 17 7 6 15 2 7 11 27 21
split_gain=2274.2 569.564 171.229 122.035 103.572 94.9356 67.4365 62.3883 59.7332 55.0035 49.8434 45.4858 43.5117 43.4908 39.47 39.2706 39.128 37.9396 65.1446 36.2976 35.4596 33.9503 33.1076 31.1738 31.0773 30.2716 29.9852 29.7814 31.7103 30.9726
threshold=4.5000000000000009 10.500000000000002 0.082351119819764992 28.500000000000004 702.00000000000011 10.500000000000002 1267877.6999158252 59.500000000000007 733634.10322166677 307.50000000000006 65.500000000000014 68.500000000000014 44.500000000000007 431512424.00000006 6998714.0000000009 1.0000000180025095e-35 0.096153855082151476 29855793.500000004 0.080969517896083337 66.500000000000014 47.483333333333341 0.092592583928612693 15.500000000000002 14.500000000000002 49.783333333333339 0.14498443116605619 1.5000000000000002 415285713.50000006 19118.500000000004 1495.5000000000002
decision_type=2 2 2 2 2 2 2 2 2 2 2 2 2 2 2 2 2 2 2 2 2 2 2 2 2 2 2 2 2 2
left_child=3 2 9 15 6 8 16 -6 12 13 14 25 26 -2 22 -1 -4 -14 -19 -20 -15 -9 24 -17 -3 -8 -5 28 -16 -29
right_child=1 10 4 5 7 -7 11 21 -10 -11 -12 -13 17 20 27 23 -18 18 19 -21 -22 -23 -24 -25 -26 -27 -28 29 -30 -31
leaf_value=0.024548743317992342 0.058106768007876466 0.062908001414778453 0.28418745078919899 -0.0008301928616400372 0.0028915581235732634 0.10787321649808926 0.1979041518105881 0.077338416187859457 -0.016412513150160884 0.05031737448688002 0.15823402819093801 0.2118816742173294 0.022625192275958515 0.25112995469433969 0.12036119008765421 -0.020392576015556739 0.11092303565856308 0.30156735024382342 0.19671163471718686 -0.0020456143746756675 0.10441244221835395 0.026682517316521784 0.12874940399104637 0.049907538501840897 0.11304355279043954 0.040135560642908193 0.10357505074897089 0.02750591205825182 0.19663041254622415 0.1353814981189165
leaf_weight=12.462301321327685 16.684651643037796 22.21231066249311 1.1288743186742056 153.54939886368811 93.763134671375155 4.8556926883757106 0.78155997209251538 10.668236097320912 131.2634099945426 60.145643897354603 13.646180275827644 1.0517680663615454 25.916702330112461 1.0829237829893852 7.3113961331546324 980.58470225892961 2.9261663425713778 0.84049857221543733 0.78713741712272201 2.1234515625983477 20.89200889505446 36.772005692124367 11.925910351797937 3.9582824334502211 11.849725905805824 27.689520638436079 1.7387300897389639 2.7687937878072253 6.3802472800016403 4.1668473370373249
leaf_count=545 563 625 36 6975 3902 138 22 384 6203 2176 232 35 1130 33 137 47200 101 36 34 94 593 1471 260 122 287 964 58 50 117 82
internal_value=0 0.0561463 0.0389669 -0.0152349 0.0240964 -0.00183016 0.0635612 0.0147118 -0.0035147 0.0652719 0.114706 0.0504307 0.00563889 0.0885377 0.105789 -0.0195517 0.159158 0.0333807 0.107692 0.0517061 0.111643 0.0380739 0.0929009 -0.0201099 0.0803495 0.0444665 0.000338812 0.134522 0.155902 0.0923162
internal_weight=0 353.848 273.586 1318.08 174.781 321.075 33.5779 141.203 316.219 98.8052 80.2614 29.5228 184.956 38.6596 66.6152 997.005 4.05504 29.6678 3.75109 2.91059 21.9749 47.4402 45.9879 984.543 34.062 28.4711 155.288 20.6273 13.6916 6.93564
internal_count=74605 12070 10280 62535 6915 14668 1158 5757 14530 3365 1790 1021 8327 1189 1558 47867 137 1294 164 128 626 1855 1172 47322 912 986 7033 386 254 132
is_linear=0
shrinkage=0.025


Tree=5
num_leaves=31
num_cat=0
split_feature=5 6 17 31 21 6 16 0 12 11 4 12 2 31 0 22 8 11 0 17 10 12 17 6 20 21 21 23 19 8
split_gain=2078.89 447.552 144.505 120.117 94.8371 81.9485 68.4588 57.5328 55.4569 50.8129 49.8426 46.2341 40.9908 39.6527 39.1603 44.3242 43.7586 45.334 37.8897 36.4616 45.021 38.3803 36.7987 36.4592 36.4398 35.6476 34.8485 34.7122 32.5359 32.3064
threshold=4.5000000000000009 10.500000000000002 0.087719296921944426 28.500000000000004 702.00000000000011 10.500000000000002 70.500000000000014 733634.10322166677 7708389.0000000009 212499995.00000003 1031199.9407407412 3498255.0000000005 0.13555577600010671 44.500000000000007 6465.8148733333337 50369.500000000007 364652779.00000006 640015531.00000012 1.0000000180025095e-35 0.07375643337340361 2.5000000000000004 8491482.5000000019 0.070422531864592727 36.500000000000007 0.084645510418557626 196455.50000000003 7161.0000000000009 16550.000000000004 775578.81818181823 464412991.50000006
decision_type=2 2 2 2 2 2 2 2 2 2 2 2 2 2 2 2 2 2 2 2 2 2 2 2 2 2 2 2 2 2
left_child=3 2 6 18 10 7 8 13 -2 25 28 -6 -11 -5 -8 16 -16 19 -1 21 -21 22 -18 24 -3 -10 -13 -22 -4 -14
right_child=1 23 4 5 11 -7 14 -9 9 12 -12 26 29 -15 15 -17 17 -19 -20 20 27 -23 -24 -25 -26 -27 -28 -29 -30 -31
leaf_value=0.023374855060569185 0.033871978611538942 0.10227329434025356 0.056556486640160844 0.00032876941890866613 0.0033259701136499255 0.095115199568305497 0.010099815717053083 -0.016258771612840443 0.3305476841801509 0.1183945118012647 0.050759055737642944 0.19065406619887568 0.013138655703008021 0.03143656621509186 0.04955416668669374 0.033030666020755765 0.22359146070054919 0.071639134887367617 -0.019993643379620094 0.11782147844404119 0.21896608997623401 0.063108634140014233 0.034071635198423704 0.12419744574900592 0.059469277922178744 0.11436760570229723 0.034547034583728403 0.40644481238054553 0.24968523697994499 0.079769698090669861
leaf_weight=12.757098728790877 66.227386608719826 42.907768871635199 0.90976401604712309 155.3427854757756 100.12176355719566 5.3622495159506789 3.4596018437296179 129.2178810108453 0.77147112041712107 6.920195801183584 29.706892937421799 0.92439104802906769 8.9732800666242856 30.665989244356751 4.9719469435513082 5.1029290445148936 2.8022540826350473 5.1204534862190476 965.76144298166037 1.9098408818244932 2.1407177839428191 3.3660981599241495 0.82998447492718685 28.44973012804985 17.500304149463773 1.2478640675544737 26.969437824562192 0.86732777021825302 1.3604872021824119 9.2219102103263122
leaf_count=545 2325 905 28 7033 4163 138 97 6203 23 181 982 35 281 1294 157 181 70 144 47322 50 53 93 21 464 421 39 1023 26 39 269
internal_value=0 0.0518974 0.0365731 -0.015077 0.0208759 -0.00179603 0.0568376 -0.00344456 0.0462052 0.0763067 0.0593874 0.0112561 0.0666061 0.0054573 0.0893082 0.0994157 0.114808 0.133851 -0.0194282 0.160584 0.212751 0.123925 0.180285 0.100863 0.0898729 0.196958 0.0397204 0.273023 0.172292 0.0469094
internal_weight=0 372.784 283.926 1299.11 159.993 320.589 123.933 315.227 93.3621 27.1347 31.9771 128.016 25.1154 186.009 30.5712 27.1116 22.0086 17.0367 978.519 11.9162 4.91789 6.99834 3.63224 88.8578 60.4081 2.01934 27.8938 3.00805 2.27025 18.1952
internal_count=74605 12070 10280 62535 6270 14668 4010 14530 3118 793 1049 5221 731 8327 892 795 614 457 47867 313 129 184 91 1790 1326 62 1058 79 67 550
is_linear=0
shrinkage=0.025


Tree=6
num_leaves=31
num_cat=0
split_feature=5 6 23 31 17 6 8 0 0 31 15 16 25 7 12 6 6 12 13 25 4 16 25 3 22 1 5 16 7 31
split_gain=1908.1 360.199 126.393 118.237 86.4981 71.6344 55.8125 55.4514 36.5904 36.3541 35.9985 45.7759 32.4979 42.6989 30.6566 30.0496 29.9537 29.2632 48.6232 87.768 28.7463 28.4058 28.0992 27.8365 27.8061 27.3703 27.0143 25.8735 25.8191 24.8273
threshold=4.5000000000000009 10.500000000000002 307.50000000000006 28.500000000000004 0.087719296921944426 10.500000000000002 429000002.50000006 733634.10322166677 1.0000000180025095e-35 44.500000000000007 59.016666666666673 98.500000000000014 0.00092620360822603888 1.0000000180025095e-35 21576011.500000004 70.500000000000014 14.500000000000002 29855793.500000004 52406098.166666679 6.0677751055822144e-05 784000.8774801587 51.500000000000007 9.2391199204833297e-05 1707031.4901695529 143441.50000000003 0.0018438097203195352 18.500000000000004 77.500000000000014 1.5000000000000002 40.500000000000007
decision_type=2 2 2 2 2 2 2 2 2 2 2 2 2 2 2 2 2 2 2 2 2 2 2 2 2 2 2 2 2 2
left_child=3 2 6 8 21 7 27 9 -1 28 -6 23 13 -8 15 20 -10 -11 19 -19 -3 -4 -18 -12 29 -15 -22 -2 -5 -23
right_child=1 14 4 5 10 -7 12 -9 16 17 11 -13 -14 25 -16 -17 22 18 -20 -21 26 24 -24 -25 -26 -27 -28 -29 -30 -31
leaf_value=0.02228292066384897 0.035054573832286891 0.17036060498978656 0.024419038711749941 -0.00081805173166134163 0.0036661478919340408 0.08493617368137843 0.030171251939361016 -0.016104252807010219 -0.020167867438347885 0.020173521582251986 0.18816864238478392 0.19530486263216959 0.029249529299697666 0.096333103065945822 0.13162167134324973 0.12957352811978604 0.19433847333030521 0.44085416447626619 0.022303423606984851 0.063781510348341341 0.058572712380959659 0.052164020494407805 0.018353813299501167 0.0021387782204938767 0.016651451048310263 0.2526645565028004 0.089298611400225048 0.08156293010078422 0.09153411780381783 0.099344888012384502
leaf_weight=13.043933819979427 57.081435177475214 2.1564740799367419 33.86346529237926 153.47590466029942 100.68992420472205 5.848045051097869 6.6842346563935271 127.22153316438198 943.35726436600089 27.284574169665579 0.58452836237847705 1.3570149671286342 7.2376004606485358 28.96765450946987 9.9034046418964845 8.5985085777938348 0.68099917098879714 0.58928687684237857 2.6045907661318779 1.1172858979552982 28.572510765865445 25.633216114714742 3.3890494909137487 3.5921742897480726 9.4273925274610502 0.71728130988776584 47.807218041270971 8.6027734465897066 1.9156377129256714 9.5743914451450092
leaf_count=545 1879 40 1174 6975 4212 138 199 6203 47200 1130 23 48 202 714 138 110 20 20 102 42 643 821 102 138 327 18 859 250 58 275
internal_value=0 0.0481766 0.0343924 -0.0149181 0.0217843 -0.00175823 0.0557025 -0.00337178 -0.0193033 0.00529108 0.00707798 0.0691586 0.0776289 0.0872565 0.089941 0.0852038 -0.0198759 0.0297372 0.090264 0.193986 0.080346 0.0416848 0.0477995 0.0281736 0.0547839 0.100111 0.0778045 0.0411459 0.000320448 0.0649944
internal_weight=0 391.051 294.013 1280.53 184.722 320.057 109.291 314.209 960.471 186.987 106.224 5.53372 43.6068 36.3692 97.0381 87.1347 947.427 31.5957 4.31116 1.70657 78.5362 78.4985 4.07005 4.1767 44.635 29.6849 76.3797 65.6842 155.392 35.2076
internal_count=74605 12070 10280 62535 7018 14668 3262 14530 47867 8327 4421 209 1133 931 1790 1652 47322 1294 164 62 1542 2597 122 161 1423 732 1502 2129 7033 1096
is_linear=0
shrinkage=0.025


Tree=7
num_leaves=31
num_cat=0
split_feature=5 6 31 17 21 0 6 16 7 4 12 16 0 31 17 20 6 31 8 19 7 6 21 12 25 29 16 28 5 31
split_gain=1758.96 295.098 116.309 108.684 68.7758 64.8023 57.2156 50.3332 40.6133 37.3344 37.1526 46.7967 35.3654 34.3713 34.1346 39.9758 28.2233 27.5493 26.2751 31.7862 24.0809 28.4564 24.0358 23.4735 34.3746 38.8794 23.2357 26.2614 23.1325 32.4321
threshold=4.5000000000000009 10.500000000000002 28.500000000000004 0.082351119819764992 702.00000000000011 733634.10322166677 7.5000000000000009 59.500000000000007 1.0000000180025095e-35 1267877.6999158252 7398520.0000000009 70.500000000000014 1.0000000180025095e-35 44.500000000000007 0.079633735202837883 0.06346902015169352 14.500000000000002 68.500000000000014 349999996.50000006 4214419.5888888901 5.5000000000000009 109.00000000000001 1.0000000180025095e-35 29855793.500000004 0.00028591209728760797 493.67203500000005 90.500000000000014 1198.5000000000002 5.5000000000000009 19.500000000000004
decision_type=2 2 2 2 2 2 2 2 2 2 2 2 2 2 2 2 2 2 2 2 2 2 2 2 2 2 2 2 2 2
left_child=2 3 12 8 9 6 13 -6 -2 -5 11 -10 -1 -4 28 -16 -14 -11 -13 26 21 -3 -7 -15 25 -25 27 -20 -12 -30
right_child=1 20 5 4 7 22 -8 -9 10 17 14 18 16 23 15 -17 -18 -19 19 -21 -22 -23 -24 24 -26 -27 -28 -29 29 -31
leaf_value=0.021264882874051011 0.027039602013752457 0.065503658720922786 7.2545054058139547e-05 0.11044951039788416 0.0021437039844382708 0.078084255468226296 0.084095128995451407 0.032727550361766646 0.037801221117959777 0.035464848439146553 0.04588085404907085 0.017195776046322126 -0.020052858456681998 0.019589553275336874 0.28181445330833971 0.058070686325183397 0.044429249636283571 0.14709024199708245 0.089340791042653744 -0.026209979622204112 0.093935996181689255 0.14186946683051271 -0.016912619188578566 0.059679367818817247 0.0081089968163035181 0.25896016012327222 0.067773198318356112 0.19658968096128973 0.2060021312475763 0.083712626411859586
leaf_weight=13.323047310113905 31.205499401316047 52.819520179182291 154.93914995715022 5.4910203106701365 96.21435290388763 1.6871598325669754 5.8908879756927481 51.705581383779645 46.330778116360307 32.585609206929803 9.3658599518239534 2.3170113377273074 925.27653926424682 27.629532434046268 1.1361998692154878 0.89004721119999874 4.2619154378771773 1.4430563151836384 2.3718024902045691 0.95568967610597688 48.767921593040228 3.2366145849227896 124.69465774297714 1.4609222617000335 2.2175746150314808 1.0528541244566438 2.9203941095620394 3.5820388533174992 1.5049403347074992 13.643525820225475
leaf_count=545 1021 968 7013 137 3902 73 140 1855 1456 986 225 67 47200 1124 27 21 122 35 44 23 788 34 6154 48 84 32 63 68 30 320
internal_value=0 0.0449234 -0.0147598 0.032439 0.0206618 -0.00172565 0.00737976 0.0128343 0.0514327 0.0499595 0.0603861 0.0492524 -0.0191775 0.00496693 0.0849173 0.183533 -0.0197572 0.0401986 0.0929295 0.110781 0.0810893 0.0699129 -0.0156444 0.0284005 0.0798538 0.143145 0.125534 0.153865 0.0767661 0.0958616
internal_weight=0 408.487 1262.43 303.663 187.44 319.573 193.191 147.92 116.224 39.5197 85.0183 58.4777 942.862 187.3 26.5406 2.02625 929.538 34.0287 12.1469 9.82993 104.824 56.0561 126.382 32.3609 4.73135 2.51378 8.87424 5.95384 24.5143 15.1485
internal_count=74605 12070 62535 10280 6915 14668 8441 5757 3365 1158 2344 1721 47867 8301 623 48 47322 1021 265 198 1790 1002 6227 1288 164 80 175 112 575 350
is_linear=0
shrinkage=0.025


Tree=8
num_leaves=31
num_cat=0
split_feature=5 5 31 7 6 11 13 7 13 24 12 16 16 0 21 16 0 14 24 4 12 6 24 28 8 0 24 31 19 11
split_gain=1626.62 246.614 114.642 100.878 76.7057 69.2378 57.143 53.3364 47.8737 41.8612 40.7426 38.7655 36.5896 34.4135 34.3522 34.1399 29.9649 29.606 27.4354 27.9532 27.113 24.2839 23.6632 32.242 23.2474 22.6968 22.3045 25.7971 23.7548 23.3409
threshold=4.5000000000000009 10.500000000000002 25.500000000000004 1.0000000180025095e-35 7.5000000000000009 300278110.00000006 6464456.8333333349 1.0000000180025095e-35 9766068.6666666679 0.0013529399974183275 3498255.0000000005 64.500000000000014 77.500000000000014 172551.26804000002 4151.5000000000009 48.500000000000007 1.0000000180025095e-35 49.683333333333344 2.9635566597840633e-05 1247769.1347212151 128100.00000000001 65.500000000000014 0.00043653588950053469 17744.500000000004 388896832.00000006 10119.065178333336 1.0507312572862668e-05 35.500000000000007 1739268.3611111112 132874352.50000001
decision_type=2 2 2 2 2 2 2 2 2 2 2 2 2 2 2 2 2 2 2 2 2 2 2 2 2 2 2 2 2 2
left_child=2 3 16 10 7 6 14 9 12 11 -2 -4 17 -12 18 -9 -1 -8 -5 -20 26 -6 23 24 -10 -7 27 -3 29 -28
right_child=1 20 4 5 21 25 8 15 22 -11 13 -13 -14 -15 -16 -17 -18 -19 19 -21 -22 -23 -24 -25 -26 -27 28 -29 -30 -31
leaf_value=0.019339892495870512 0.0010589918304359242 0.080149951673892939 -0.0089553506181227014 0.0039085078483211575 0.051146371848062491 0.026300367644427711 0.032647981680859105 0.21050257286699645 0.021411509990845897 -0.016230434317673677 0.051831316168675971 0.011359979293646738 0.20795114094798306 0.0082115117099554168 0.0085483397629257229 0.035214644102191453 -0.021028306888365197 0.15905987270776367 0.12509325109096311 0.044761221171181254 0.092809776199585567 0.18403816168024528 -0.0092426650609060326 0.18199469279698677 0.16831998999628225 0.06013165136424492 0.11751193877081451 0.18076078120580336 0.040759975641564465 0.058954291163173501
leaf_weight=11.666298532858489 71.031187988817692 13.755638256669043 144.77367298863828 6.6960315350443151 9.0501753892749512 14.258550167083738 2.9899435248225954 0.74099644459783931 5.2638241015374643 196.4017613530159 24.112151231616735 98.747172018513083 2.0278599467128515 21.281324062496424 61.238117266446352 11.054154835641382 771.35178516805172 1.8898095823824403 3.6352195870131245 10.60596672259271 39.026839088648558 0.94958828017115671 4.5035466775298119 1.2018476556986568 0.77195824682712544 94.773279966786504 6.2378326877951649 1.8013870790600766 24.807353146374226 13.379164908081291
leaf_count=467 2805 213 7108 199 225 347 96 30 143 9825 724 4353 48 698 2275 369 40140 49 86 309 506 18 141 34 22 2562 112 25 460 216
internal_value=0 0.0420315 -0.0146008 0.0315446 -0.00472047 0.0418986 0.0269656 -0.00623657 0.0664736 -0.00764321 0.0128816 -0.000717529 0.118696 0.0313815 0.0179997 0.0462266 -0.0204269 0.0816042 0.0456436 0.0652669 0.0765909 0.0637659 0.03575 0.0637463 0.0402007 0.0557074 0.0660382 0.0917999 0.0570166 0.0775745
internal_weight=0 425.289 1244.74 326.281 461.718 209.856 100.824 451.718 18.6488 439.923 116.425 243.521 6.90761 45.3935 82.1753 11.7952 783.018 4.87975 20.9372 14.2412 99.0082 9.99976 11.7412 7.23763 6.03578 109.032 59.9814 15.557 44.4244 19.617
internal_count=74605 12070 62535 10538 21928 6311 3402 21685 533 21286 4227 11461 193 1422 2869 399 40607 145 594 395 1532 243 340 199 165 2909 1026 238 788 328
is_linear=0
shrinkage=0.025


Tree=9
num_leaves=31
num_cat=0
split_feature=5 6 31 17 6 23 7 21 24 16 28 29 0 14 8 4 15 17 12 25 23 19 14 1 16 12 17 6 3 22
split_gain=1508.33 208.751 113.227 88.9333 69.4124 53.2335 49.0892 43.4595 40.7537 36.7929 36.5673 68.1359 29.1091 27.9238 26.695 28.1976 31.9517 39.7311 25.4205 28.3211 31.7278 32.0652 56.2786 30.2124 24.2868 24.0462 22.9088 22.6831 22.4909 24.8035
threshold=4.5000000000000009 10.500000000000002 25.500000000000004 0.098039229382028276 7.5000000000000009 1.0000000180025095e-35 1.0000000180025095e-35 702.00000000000011 0.0013529399974183275 64.500000000000014 38619.500000000007 52978.296290000006 1.0000000180025095e-35 46.583333333333343 431512424.00000006 1128514.3351190484 39.750000000000007 0.09433963123736179 3498255.0000000005 0.0016447588568915589 619116.66666666686 1245533.9545454548 48.683333333333344 9.3979407016839953e-05 48.500000000000007 3111189.0000000005 0.080431362997053127 66.500000000000014 2728200.8365740743 91707.500000000015
decision_type=2 2 2 2 2 2 2 2 2 2 2 2 2 2 2 2 2 2 2 2 2 2 2 2 2 2 2 2 2 2
left_child=2 3 12 5 6 14 8 10 9 -4 -5 -12 -1 -13 15 -2 17 -17 -9 20 21 22 -20 -23 -8 26 -7 -6 29 -27
right_child=1 -3 4 7 27 25 24 18 -10 -11 11 13 -14 -15 -16 16 -18 -19 19 -21 -22 23 -24 -25 -26 28 -28 -29 -30 -31
leaf_value=0.018509459391029753 0.089652422659059053 0.067703958860802549 -0.0088076990167667672 0.028308358443284082 0.046757813646162764 0.032474436459431884 0.16784784790839893 -0.00018851370974015702 -0.016076200655426216 0.010955235933619172 0.29553497671730283 0.022955829549531945 -0.02092657000484217 0.18717585021233996 0.070864294142484116 0.049696722385016295 0.022804875913263009 0.2906828727758759 0.056986754910159081 -0.0062815163786371754 0.22998376878398219 0.13302658517396557 0.32409793272882353 0.009985707292769111 0.033209877194184327 0.073209485299730551 0.0039572283928306388 0.17141338200690706 0.020621163411387852 0.011990466512172959
leaf_weight=11.88215605355799 6.0373830664902917 119.21725984290242 143.53637248463929 24.389178605750207 9.5860142298042756 43.700198005884886 0.90360115468501945 83.416939456015825 193.36725666001439 99.821626972407103 0.93288671225309272 3.0662345103919511 755.91874213889241 0.82026896439492691 39.285032249987125 1.3227749671787048 26.127194793894887 0.63182828575372685 2.1146729215979589 8.9917156118899566 0.5864201597869404 1.4158888701349486 0.64286111667752255 10.474452184513209 11.42354874126613 19.117075787857178 29.485889345407486 1.0083113498985756 14.467516250908373 5.2784803081303826
leaf_count=467 139 1790 7108 674 227 1375 30 3368 9825 4353 25 87 40140 20 818 40 733 20 74 326 20 44 20 351 369 475 1114 16 396 161
internal_value=0 0.0394394 -0.0144414 0.0289847 -0.00462783 0.0402656 -0.00612005 0.0136974 -0.00750876 -0.000701254 0.0407429 0.103669 -0.0203163 0.0576154 0.0568142 0.0406368 0.0300987 0.127596 0.00635865 0.0289024 0.0496689 0.0424501 0.119258 0.0246373 0.0430791 0.0294246 0.0209852 0.0586219 0.0453176 0.0599635
internal_weight=0 441.522 1227.45 322.305 459.647 185.453 449.052 136.852 436.725 243.358 29.2086 4.81939 767.801 3.8865 73.4042 34.1192 28.0818 1.9546 107.643 24.226 15.2343 14.6479 2.75753 11.8903 12.3271 112.049 73.1861 10.5943 38.8631 24.3956
internal_count=74605 12070 62535 10280 21928 5271 21685 5009 21286 11461 806 132 40607 107 1750 932 793 60 4203 835 509 489 94 395 399 3521 2489 243 1032 636
is_linear=0
shrinkage=0.025


Tree=10
num_leaves=31
num_cat=0
split_feature=5 6 23 16 17 1 31 8 30 0 6 7 16 21 24 7 17 9 9 29 13 29 29 6 1 15 5 31 30 19
split_gain=1407.52 217.196 117.672 87.6122 62.4662 49.9154 37.7523 33.7613 30.5499 28.5552 27.6717 25.4753 23.1958 23.172 29.7947 23.0176 24.4255 32.3005 29.2522 22.4178 30.093 25.0561 23.9956 22.4078 24.5459 21.3769 20.7163 20.6048 20.5254 38.4372
threshold=1.0000000180025095e-35 10.500000000000002 1.0000000180025095e-35 50.500000000000007 0.090909106079541155 0.0017074748718440074 37.500000000000007 429000002.50000006 18.500000000000004 1.0000000180025095e-35 6.5000000000000009 2.5000000000000004 51.500000000000007 3063858.0000000005 0.00022412048146228981 1.0000000180025095e-35 0.099160023333849337 1367.5000000000002 624.50000000000011 607192.38888500014 9041800.0000000019 911824.56272000016 288623.97012500005 6.5000000000000009 0.00014202776778455859 76.483333333333348 5.5000000000000009 25.500000000000004 5.5000000000000009 1293870.5416666667
decision_type=2 2 2 2 2 2 2 2 2 2 2 2 2 2 2 2 2 2 2 2 2 2 2 2 2 2 2 2 2 2
left_child=3 2 7 9 11 6 -5 25 -6 28 -11 27 13 -13 -15 -9 17 18 19 20 -17 -21 -22 -8 -25 -2 -20 -4 -1 -30
right_child=1 -3 4 5 8 -7 23 15 -10 10 -12 12 -14 14 -16 16 -18 -19 26 21 22 -23 -24 24 -26 -27 -28 -29 29 -31
leaf_value=-0.025688458223911415 0.031358269078868267 0.062284106723639543 -0.009465474037248971 -0.004937237791996351 -0.0014544753702589455 -0.016363405460637609 0.014066899179732981 0.021614948550600307 0.036588900732013152 -0.021838763266613423 0.035614624167530834 0.012754053588045279 0.052811796010374584 0.1886323294781875 0.04152000791509225 0.025522676846028339 0.027664666329430865 0.039899167854899116 0.1089481605503122 0.22173970803291368 0.10206097802308343 0.07248737958344853 -0.0084292886622654196 0.1762675281427889 0.034518203383070926 0.16117075529904623 0.21944475764224075 0.024858705146697024 0.24381676215176995 0.027467678042068674
leaf_weight=4.1299057975411397 81.542731115594506 127.3419944383204 15.428949786350129 168.59087721444666 118.90004504472017 177.62637381069362 59.82241977378726 9.4415869005024415 14.839114792644976 721.25383640639484 5.2777669858187428 25.865520134568218 33.239268500357866 1.0474596600979555 4.8191563282161951 7.1849155798554518 9.2924599666148406 12.842619178816674 3.4884504638612261 1.3084357567131513 11.057340249419211 1.5192568842321632 1.3820107989013184 1.1081120781600469 2.4551935289055109 0.80063472501933475 1.523635685443878 37.491942042484879 0.55661853775382031 6.586024921387434
leaf_count=160 2407 1819 641 8202 5034 9146 2521 263 552 39166 168 801 838 27 146 139 236 304 62 24 190 35 27 21 54 21 28 1293 22 258
internal_value=0 0.0339092 0.0247154 -0.0156615 0.0144615 -0.00638998 0.00124675 0.042965 0.00276665 -0.0208088 -0.0214214 0.0277283 0.0382167 0.0229284 0.0677863 0.0573924 0.0642029 0.0726266 0.0879304 0.07574 0.0662573 0.14155 0.0897855 0.0176947 0.0785992 0.0326205 0.142538 0.0148516 0.0186759 0.0443275
internal_weight=0 520.358 393.016 1147.41 251.631 409.603 231.977 141.384 133.739 737.804 726.532 117.892 64.9714 31.7321 5.86662 59.0407 49.5991 40.3067 27.464 22.452 19.6243 2.82769 12.4394 63.3857 3.56331 82.3434 5.01209 52.9209 11.2725 7.14264
internal_count=74605 14887 13068 59718 9332 19944 10798 3736 5586 39774 39334 3746 1812 974 173 1308 1045 809 505 415 356 59 217 2596 75 2428 90 1934 440 280
is_linear=0
shrinkage=0.025


Tree=11
num_leaves=31
num_cat=0
split_feature=5 6 23 16 17 1 31 15 9 9 30 29 16 0 6 7 9 16 21 29 12 27 6 28 31 29 7 11 4 19
split_gain=1316.84 187.291 103.639 86.8227 56.883 48.4437 35.5274 29.5394 29.7473 36.6801 30.7028 38.8308 29.0446 27.7253 26.5184 22.441 20.7789 19.8704 19.909 24.0855 22.5487 19.4724 19.2589 19.2131 19.0353 18.6704 21.9106 24.506 18.131 35.5062
threshold=1.0000000180025095e-35 10.500000000000002 1.0000000180025095e-35 50.500000000000007 0.090909106079541155 0.0015430604466633534 37.500000000000007 46.483333333333341 1493.5000000000002 624.50000000000011 14.500000000000002 255366.11110500005 62.500000000000007 1.0000000180025095e-35 6.5000000000000009 2.5000000000000004 2291.5000000000005 51.500000000000007 3063858.0000000005 564153.59258500009 167818.50000000003 -4456.4999999999991 54.500000000000007 4023.5000000000005 25.500000000000004 137679.18518000003 5.5000000000000009 549873610.50000012 1769905.4318181796 1941009.5476190478
decision_type=2 2 2 2 2 2 2 2 2 2 2 2 2 2 2 2 2 2 2 2 2 2 2 2 2 2 2 2 2 2
left_child=3 2 7 13 15 6 -5 -2 9 -9 11 25 -6 23 -15 24 -10 18 28 20 -20 -19 -7 -1 -4 26 27 -11 29 -17
right_child=1 -3 4 5 12 22 -8 8 16 10 -12 -13 -14 14 -16 17 -18 21 19 -21 -22 -23 -24 -25 -26 -27 -28 -29 -30 -31
leaf_value=0.010770788703220726 0.027290824084044429 0.057663870071896509 -0.0093131106130397625 -0.0046508233613570009 -0.0049938549300594607 -0.016129896392628431 0.017588691004333565 0.049093467869379535 0.018935539991579028 0.0094211861677297865 0.1673416268316858 -0.015213823007895781 0.020309770855115414 -0.021751092608491538 0.033584790037551729 0.020149915123327502 0.12934383350656944 0.13588636987664002 0.065737571425341368 0.021287291241925552 0.22109339663754454 0.045027870222221308 0.15491818846887243 0.16609046881310194 0.023672714466811878 0.17933412610708777 0.14921856995135652 0.15654791584395189 -0.002017446566686914 0.16047254363642535
leaf_weight=10.968958871439096 62.855335991829634 134.0169330406934 15.291089268401263 160.31542613357306 93.382415276020765 184.01592326536775 62.356857867911458 49.971678243950009 20.504800401628021 2.7986446972936379 2.9566285405307999 2.2671912461519241 40.71233662776649 706.24589602276683 5.4545005168765774 7.0589063558727521 1.1237516440451134 1.5424618385732163 1.6361557822674506 3.7061685975641012 0.90793584845960129 33.331991059705615 0.41233128309249778 0.52142693661153394 38.374469785019755 1.5787043292075393 1.9931061044335363 0.94699378684163082 17.773997033014894 1.3411366790533064
leaf_count=420 1808 1819 641 7827 4089 9607 2503 1099 528 76 48 56 1497 39166 168 224 27 37 48 109 16 801 7 20 1293 36 44 14 537 40
internal_value=0 0.0320692 0.0235377 -0.0155064 0.0139018 -0.00627143 0.0015771 0.0402573 0.0499435 0.058687 0.0969132 0.0751878 0.00268855 -0.020705 -0.021327 0.0263323 0.024672 0.0359479 0.0218596 0.0619478 0.121181 0.0490464 -0.0157475 0.0178191 0.014274 0.103197 0.0822523 0.0466186 0.0122868 0.0425536
internal_weight=0 536.073 402.056 1130.29 255.059 407.101 222.672 146.997 84.1415 62.5129 12.5413 9.58464 134.095 723.191 711.7 120.964 21.6286 67.2988 32.4243 6.25026 2.54409 34.8745 184.428 11.4904 53.6656 7.31745 5.73874 3.74564 26.174 8.40004
internal_count=74605 14887 13068 59718 9332 19944 10330 3736 1928 1373 274 226 5586 39774 39334 3746 555 1812 974 173 64 838 9614 440 1934 170 134 90 801 264
is_linear=0
shrinkage=0.025


Tree=12
num_leaves=31
num_cat=0
split_feature=5 6 23 16 12 1 2 31 8 29 28 17 16 16 30 19 2 4 6 16 1 21 2 24 21 14 1 28 3 21
split_gain=1234.04 162.802 100.429 86.0175 51.1165 47.0678 36.8741 33.1939 27.5131 26.9912 25.0481 23.0324 22.9717 27.3907 22.5689 29.8634 32.97 22.0877 21.9199 21.6866 21.6525 33.7264 28.5777 32.2112 25.2625 25.3728 23.7231 21.1081 39.755 20.5691
threshold=1.0000000180025095e-35 15.500000000000002 307.50000000000006 50.500000000000007 6086745.0000000009 0.0017074748718440074 0.15595854737175757 37.500000000000007 434000003.00000006 1.0000000180025095e-35 2.5000000000000004 0.092592583928612693 51.500000000000007 62.500000000000007 5.5000000000000009 1245533.9545454548 0.12557060656418759 1108394.0440170944 6.5000000000000009 68.500000000000014 0.0026147346741493788 2197426.0000000005 0.23403656771824796 0.00052847192496892055 4276471.0000000009 56.81666666666667 0.00095123534083171619 207.50000000000003 957604.82152777794 166757.50000000003
decision_type=2 2 2 2 2 2 2 2 2 2 2 2 2 2 2 2 2 2 2 2 2 2 2 2 2 2 2 2 2 2
left_child=3 2 8 9 6 7 10 -5 17 14 12 29 -4 -14 -1 -16 -17 27 -11 -8 21 -6 23 26 -24 -26 -23 28 -2 -10
right_child=1 -3 4 5 20 -7 19 -9 11 18 -12 -13 13 -15 15 16 -18 -19 -20 -21 -22 22 24 -25 25 -27 -28 -29 -30 -31
leaf_value=-0.025634132917989799 0.046120152972871586 0.056252530346101531 0.012154590158969462 -0.0047315411029013876 0.030945416351165708 -0.016059844122444475 -0.0046961562453270399 0.016270006900033024 0.049288156339915408 -0.021657316016655673 0.02019419673014582 0.02666833821435094 0.23161942220589152 0.037171598383319633 0.20414874878749256 0.19138593890211753 0.0095887548321162436 0.025052854536285713 0.028400788559273395 0.018711307245011272 0.0061228044683548548 0.042478790161225854 0.26410403482986167 0.014696096977564466 0.0026517154159023822 0.19087425154510718 0.19999990744429033 0.037140581940455789 0.19336913844801085 0.084662027070189758
leaf_weight=5.0613528043031675 3.0994500722736111 119.18828208371997 1.3038896154612296 166.96908779256046 42.467550218105316 172.20782001875341 109.68342575058341 65.483927337452769 34.803982883691788 690.6189575586468 56.376033578068018 17.958835842087865 1.0670398231595752 0.78649768792092789 0.65225029177963723 0.69101884216070164 6.3794615771621466 82.184112956747413 5.5108850859105578 31.941992335021496 14.801952771842478 1.088933596387504 0.86129822954535518 4.2798079438507557 0.87126818858087041 0.92054839245975018 1.3241976257413623 9.8481463287025672 1.8181880619376896 14.576630821451543
leaf_count=217 70 1490 36 8202 1132 9146 4601 2596 648 39090 1802 440 29 19 22 27 254 2313 164 1066 466 25 24 113 26 21 29 233 36 268
internal_value=0 0.0303852 0.0232495 -0.0153504 0.0138085 -0.00615386 0.00752284 0.00118477 0.0386372 -0.0206 0.0240319 0.0509129 0.0925534 0.149111 0.0153969 0.042288 0.0273563 0.0301108 -0.021261 0.000583129 0.0327895 0.0404075 0.0834025 0.0558787 0.152836 0.0993513 0.128918 0.0582627 0.100562 0.0597301
internal_weight=0 551.252 432.064 1113.57 267.774 404.661 201.159 232.453 164.289 708.914 59.5335 67.3394 3.15743 1.85354 12.7841 7.72273 7.07048 96.9499 696.13 141.625 66.6156 51.8136 9.34605 6.69294 2.65311 1.79182 2.41313 14.7658 4.91764 49.3806
internal_count=74605 14887 13397 59718 9389 19944 7553 10798 4008 39774 1886 1356 84 48 520 303 281 2652 39254 5667 1836 1370 238 167 71 47 54 339 106 916
is_linear=0
shrinkage=0.025


Tree=13
num_leaves=31
num_cat=0
split_feature=5 5 7 16 1 23 14 6 12 15 31 0 6 12 11 28 21 2 8 29 31 0 2 14 14 9 2 17 25 2
split_gain=1158.19 145.246 88.6674 85.1997 46.0313 40.0044 37.8389 37.1469 36.2801 29.72 28.3244 26.3086 24.5625 23.6254 33.3751 23.8409 23.4945 22.562 21.5195 21.4964 24.8153 25.2292 21.6884 21.1368 20.3289 59.7044 48.808 65.673 20.0207 22.4454
threshold=1.0000000180025095e-35 10.500000000000002 1.0000000180025095e-35 50.500000000000007 0.0025257021958244746 307.50000000000006 36.183333333333344 42.500000000000007 3498255.0000000005 76.483333333333348 37.500000000000007 1.0000000180025095e-35 6.5000000000000009 7116079.5000000009 162010865.00000003 44860.000000000007 2044536.5000000002 0.1563707881556323 429000002.50000006 272093.47431000002 51.500000000000007 153912.07562500003 0.19314701660610309 46.116666666666674 61.983333333333341 1486.5000000000002 0.15030280891150152 0.079365079538593925 0.0024260001539656247 0.18680873684386182
decision_type=2 2 2 2 2 2 2 2 2 2 2 2 2 2 2 2 2 2 2 2 2 2 2 2 2 2 2 2 2 2
left_child=3 2 8 11 7 9 -7 10 -2 18 -5 -1 -13 -8 15 -15 -16 24 -4 20 -10 22 -22 -3 25 26 27 -12 29 -18
right_child=1 23 5 4 -6 6 13 -9 19 -11 17 12 -14 14 16 -17 28 -19 -20 -21 21 -23 -24 -25 -26 -27 -28 -29 -30 -31
leaf_value=0.01641440863865206 -0.0011053899397047129 0.041455557185569494 0.029750619069514511 -0.0057535741222335393 -0.017911830208586121 -0.005883179748963633 0.020568682801444749 0.12512480824542621 0.026230394626568218 0.11055253405975257 0.10634355569132595 -0.021572713009855454 0.030197157430305616 0.17632152685651536 0.021435292554241453 0.0084315274783315994 0.068333302371673468 0.0052213632849040783 0.049749255847737713 0.0019684545870737552 0.13436912651606167 0.18685853680687514 0.012301413550507075 0.061811450192538156 0.023425820315364939 -0.025639387949746087 0.050494415989495924 0.49323215504891754 0.027485927126353289 0.18692766961343266
leaf_weight=11.864551950246094 106.8068374581635 60.052486598491669 80.467002252116799 192.1417353246361 135.37551361136138 26.512742670252919 76.838702654466033 1.4743735343217839 34.416491560637951 3.6323408335447303 0.5683108754456041 677.35276875644922 5.7767972797155371 1.9723561629653006 16.194606326520447 0.72219330258667458 2.8922793660312882 57.420341653749347 57.773677811026573 19.744267031550407 1.3998557068407529 1.1739611718803642 2.5981792062520981 67.961995143443346 12.215728500857947 1.5720237698405979 0.98267355933785427 0.52990244328975677 3.2518412657082081 1.5224513877183197
leaf_count=440 4404 790 2057 9604 7355 1089 2403 20 944 61 24 39166 168 46 341 19 53 2324 1057 651 30 31 64 742 494 65 37 21 74 31
internal_value=0 0.0288375 0.0219898 -0.0151939 -0.00603746 0.0307852 0.0207617 -1.47249e-05 0.00760194 0.0399632 -0.000709831 -0.0204939 -0.0211349 0.0275941 0.0479219 0.131324 0.0385037 0.0125134 0.0381085 0.0232763 0.0339033 0.084962 0.0550417 0.0522624 0.0388993 0.0906441 0.178492 0.293022 0.0745584 0.109231
internal_weight=0 565.934 437.92 1097.27 402.281 271.78 129.907 266.905 166.14 141.873 265.431 694.994 683.13 103.394 26.5557 2.69455 23.8612 73.289 138.241 59.3328 39.5885 5.172 3.99803 128.014 15.8686 3.65291 2.08089 1.09821 7.66657 4.41473
internal_count=74605 14887 13355 59718 19944 7231 4056 12589 6124 3175 12569 39774 39334 2967 564 65 499 2965 3114 1720 1069 125 94 1532 641 147 82 45 158 84
is_linear=0
shrinkage=0.025


Tree=14
num_leaves=31
num_cat=0
split_feature=5 6 16 7 1 15 16 6 9 31 2 29 9 21 12 21 3 12 30 19 2 6 11 3 1 16 20 16 0 11
split_gain=1088.72 128.083 84.3114 78.6958 44.7564 37.4359 36.758 31.8444 30.1425 26.7325 26.0333 25.772 22.4674 26.0607 24.1827 21.6747 20.7488 23.3014 20.4796 21.4938 24.7254 20.3435 18.43 26.6461 24.6704 22.0074 19.194 19.0021 24.9036 20.8338
threshold=1.0000000180025095e-35 10.500000000000002 50.500000000000007 1.5000000000000002 0.0025257021958244746 37.250000000000007 72.500000000000014 42.500000000000007 1199.5000000000002 36.500000000000007 0.19797568760442028 1.0000000180025095e-35 725.50000000000011 1495.5000000000002 3111189.0000000005 9860.5000000000018 770624.01060744829 9406061.5000000019 5.5000000000000009 1245533.9545454548 0.12557060656418759 6.5000000000000009 306131670.00000006 2278628.7567460318 0.00014937534901889068 36.500000000000007 0.040461363392697576 41.500000000000007 112698.27600333336 388915036.50000006
decision_type=2 2 2 2 2 2 2 2 2 2 2 2 2 2 2 2 2 2 2 2 2 2 2 2 2 2 2 2 2 2
left_child=2 3 11 6 7 -5 16 9 12 -4 15 18 14 -14 -7 -8 -2 -18 -1 -20 -21 -13 -10 24 -24 -26 -27 -28 29 -29
right_child=1 -3 4 5 -6 8 10 -9 22 -11 -12 21 13 -15 -16 -17 17 -19 19 20 -22 -23 23 -25 25 26 27 28 -30 -31
leaf_value=-0.025626272964208364 0.067006241980821973 0.04713036445198162 -0.0059708402401107913 0.012947219192889209 -0.017771604749752718 0.024590926692653586 0.099720702767401942 0.11007790415886838 0.002469230531743272 0.011247962730232449 0.011600762474005282 -0.021476343485684387 0.134258415890222 0.054028067532507454 0.049057755238314939 0.035541529116747163 -0.0050448558746225289 0.020841935061601136 0.16197118700205715 0.1531678678209242 0.0088857683160872124 0.025486239193762351 0.012508728309016441 0.013936954986361692 0.2022185020670178 0.025378919451897543 0.18756270329966374 0.05655551857192212 0.04033253178299475 0.21755744596705232
leaf_weight=4.9794354792684308 2.9667958132922641 151.99762818589807 184.09813921712339 63.100098313763738 133.06182805262506 43.746855666860938 4.358162501826885 1.6318040341138829 21.099164130166173 81.21129365824163 24.686861539259553 662.44726066105068 3.2463438492268315 11.473582727834581 59.708516312763095 13.404349833726881 107.87326095066965 27.215062789618969 0.79787893965840151 0.83794207498431195 6.5060439426451921 5.8156445920467368 6.4286084696650532 25.542048936709762 0.76673050411045451 4.8513080179691297 1.0538117885589597 0.90655270032584701 4.4972785729914904 1.1265582367777822
leaf_count=217 120 1819 9282 2102 7355 1107 94 20 626 3287 810 39090 53 296 1104 394 4462 787 22 27 254 164 146 642 21 124 31 23 103 23
internal_value=0 0.027416 -0.0150379 0.0204156 -0.00592709 0.029569 0.00786241 -2.29766e-05 0.0352553 -0.00070016 0.0282076 -0.0203864 0.0428236 0.0717221 0.0387118 0.0512884 0.00160663 0.000170329 0.0143115 0.0387369 0.0253482 -0.0210676 0.0217597 0.0307699 0.0526715 0.0722281 0.0642133 0.0890541 0.0731577 0.145768
internal_weight=0 580.05 1081.39 428.052 400.003 247.547 180.504 266.941 184.447 265.309 42.4494 681.384 118.175 14.7199 103.455 17.7625 138.055 135.088 13.1213 8.14186 7.34399 668.263 66.2721 45.1729 19.6308 13.2022 12.4355 7.5842 6.53039 2.03311
internal_count=74605 14887 59718 13068 19944 6401 6667 12589 4299 12569 1298 39774 2560 349 2211 488 5369 5249 520 303 281 39254 1739 1113 471 325 304 180 149 46
is_linear=0
shrinkage=0.025


Tree=15
num_leaves=31
num_cat=0
split_feature=5 6 16 23 1 12 15 4 6 30 13 19 14 17 9 9 12 6 4 13 13 25 20 16 18 11 3 16 5 25
split_gain=1024.59 115.255 83.4435 70.9754 43.5384 40.8543 33.1757 34.4067 29.8273 28.2247 25.6297 40.4533 26.4172 23.923 23.6903 27.881 23.3504 22.5549 21.6446 54.7637 25.4601 38.0599 19.3738 19.1693 19.0658 18.6056 26.284 17.9349 17.6956 17.0398
threshold=1.0000000180025095e-35 19.500000000000004 50.500000000000007 1.0000000180025095e-35 0.0025257021958244746 6086745.0000000009 52.283333333333339 1058364.4591630592 6.5000000000000009 24.500000000000004 18962517.33333334 1886619.7604166667 73.950000000000017 0.097823396272754951 1152.5000000000002 865.50000000000011 12113503.000000002 6.5000000000000009 2431724.4166666674 29499494.000000004 13091437.333333334 0.00023849338439828257 0.053706556074059206 70.500000000000014 86743.531356666688 622226405.50000012 1132158.4759085213 43.500000000000007 4.5000000000000009 0.0024260001539656247
decision_type=2 2 2 2 2 2 2 2 2 2 2 2 2 2 2 2 2 2 2 2 2 2 2 2 2 2 2 2 2 2
left_child=2 3 10 13 8 6 7 9 16 24 17 -12 -13 14 15 -2 -4 -1 19 20 21 -18 -10 -8 -5 26 -25 -14 -28 -7
right_child=1 -3 4 5 -6 29 23 -9 22 -11 11 12 27 -15 -16 -17 18 -19 -20 -21 -22 -23 -24 25 -26 -27 28 -29 -30 -31
leaf_value=-0.021361963787699646 0.044991976391674501 0.04820539320836887 -0.0045917373414832603 0.062639580447768281 -0.017630272585015053 0.034861734759285661 0.013118148762365476 -0.0038365778016451173 0.14667294905219946 0.1961881796070668 0.24784604072131777 -0.0047721500925741699 0.24544838395631216 0.02143538816227809 0.023336096619286192 0.12059107710910516 0.32093044132279031 0.026753071036856431 0.0063317725799612694 0.24550010871597738 0.0080233099709662078 0.043619712989209851 0.030974083554956445 0.0066965754623362576 0.00080000547055345558 -0.0041546811152893123 0.0093134786207155103 0.026764843732863492 0.089093938984134396 0.005674799433961604
leaf_weight=650.94983755797148 71.930367195978761 118.08656013384461 223.10121283307672 5.9288616925477946 130.80382680334151 60.808605125173926 60.789948701858521 125.35610845685005 1.0097405686974514 0.67430527135729867 0.45690332166850467 9.6211561672389472 0.46086715534329492 68.248879240825772 35.176379295065999 3.1839468143880358 0.43289390020072271 6.1466732677072278 25.820105712860823 0.82920073531568039 5.9465631749480963 1.0836360827088354 8.6838504243642074 5.2676353715360227 6.5679688937962055 4.543146049603819 2.1368757691234341 0.47698386572301388 9.2996417395770532 15.737079465761779
leaf_count=39061 1288 1281 10841 212 7355 1429 1944 4885 24 18 19 484 18 1748 793 45 20 170 1157 32 262 49 204 121 243 123 77 22 215 465
internal_value=0 0.0260991 -0.0148809 0.0206109 -0.0058145 0.0131247 0.00766344 0.00020204 -2.39127e-05 0.0386395 -0.0202779 0.0175395 0.00757381 0.0330687 0.0402674 0.0481965 -0.00164633 -0.0209119 0.0176172 0.052757 0.0313419 0.122778 0.0430259 0.0202627 0.0301385 0.0407037 0.0529041 0.134228 0.0741872 0.0288612
internal_weight=0 593.736 1065.82 475.65 397.711 297.11 220.564 138.527 266.907 13.1711 668.112 11.0159 10.559 178.54 110.291 75.1143 257.214 657.097 34.1124 8.29229 7.46309 1.51653 9.69359 82.0372 12.4968 21.2473 16.7042 0.937851 11.4365 76.5457
internal_count=74605 14887 59718 13606 19944 9732 7838 5358 12589 473 39774 543 524 3874 2126 1333 12361 39231 1520 363 331 69 228 2480 455 536 413 40 292 1894
is_linear=0
shrinkage=0.025


Tree=16
num_leaves=31
num_cat=0
split_feature=5 5 16 7 1 23 14 31 12 29 6 15 14 28 6 30 8 20 29 31 12 0 12 12 24 5 15 14 21 18
split_gain=965.491 104.197 82.5338 69.0956 42.3233 29.7476 31.1862 29.2793 29.1838 24.95 24.4942 21.0456 21.6472 22.0425 18.9844 18.6904 18.1656 18.7975 17.7134 19.1785 17.5561 17.3287 16.783 25.5805 25.163 17.0848 16.5053 23.5286 16.0208 26.3923
threshold=1.0000000180025095e-35 10.500000000000002 50.500000000000007 1.0000000180025095e-35 0.0025257021958244746 307.50000000000006 36.183333333333344 44.500000000000007 3498255.0000000005 1.0000000180025095e-35 23.500000000000004 76.483333333333348 78.683333333333351 3396.5000000000005 6.5000000000000009 5.5000000000000009 174166659.00000003 0.042828921235744007 272093.47431000002 51.500000000000007 4886623.0000000009 153912.07562500003 7116079.5000000009 9999999.5000000019 0.00098189928178576947 5.5000000000000009 35.783333333333339 50.683333333333344 2044536.5000000002 760307.59573250019
decision_type=2 2 2 2 2 2 2 2 2 2 2 2 2 2 2 2 2 2 2 2 2 2 2 2 2 2 2 2 2 2
left_child=2 3 9 8 7 11 -7 -4 -2 15 -9 -5 13 -13 -11 -1 -17 -18 19 -10 -3 -21 -8 24 25 -24 -16 -28 -25 -30
right_child=1 20 4 5 -6 6 22 10 18 14 -12 12 -14 -15 26 16 17 -19 -20 21 -22 -23 23 28 -26 -27 27 -29 29 -31
leaf_value=-0.025607730778059525 -0.0013787494673325985 0.037349885660905982 -0.0033603802015273903 0.032461705964667333 -0.017487854045264858 -0.006132661820198752 0.018029398019212248 0.016721891463586297 0.022445544683973348 -0.021291747141909428 0.128026872995948 0.05857812036938962 0.008200139850363582 0.19654960140866523 -0.026129883161285634 0.1296504993180225 0.12157873750462692 0.0057716660354999181 0.00087684665903025444 0.046525934131796912 0.055937567500646837 0.14602797296845882 -0.012035923015897959 0.012027415004116693 0.15542989516939917 0.086140499451906549 0.1065378228647047 -0.026018485053178272 0.12847152136887766 0.027056287544097914
leaf_weight=4.8198100533336392 107.93104280158877 94.922331608831882 229.74104861915112 151.00484279729426 128.60019825212657 26.827103877440095 81.136312980204821 35.898923452943563 37.026765543967485 635.76141522452235 1.2797522619366635 1.4456726312637322 1.4102204926311968 1.4491600841283796 2.5117481872439376 1.1239383816719035 1.0162045229226349 6.349794365465641 20.513496091589332 4.4543108083307734 47.726202793419361 1.4500114545226095 1.7250040713697696 14.908624211326243 2.0583406239748001 3.096449326723814 2.2589283380657439 1.3294497039169071 2.2500210609287015 5.5841605793684721
leaf_count=217 4404 1127 11225 3114 7355 1089 2403 1350 944 39090 14 19 21 21 67 33 28 242 651 94 405 31 35 293 39 53 57 40 36 108
internal_value=0 0.0248812 -0.014724 0.0191394 -0.00570595 0.0265167 0.0180518 -2.95096e-05 0.00653095 -0.0201681 0.0205532 0.0340156 0.0885194 0.127647 -0.0208706 0.0137112 0.0360329 0.0217483 0.0199868 0.029118 0.0435688 0.0709621 0.0239096 0.0400153 0.0822547 0.0510153 0.0230224 0.0574273 0.0272377 0.0561833
internal_weight=0 606.92 1050.69 464.272 395.52 292.896 137.586 266.92 171.376 655.171 37.1787 155.31 4.30505 2.89483 641.862 13.3097 8.48994 7.366 63.4446 42.9311 142.649 5.90432 110.759 29.6226 6.87979 4.82145 6.10013 3.58838 22.7428 7.83418
internal_count=74605 14887 59718 13355 19944 7231 4056 12589 6124 39774 1364 3175 61 40 39254 520 303 270 1720 1069 1532 125 2967 564 127 88 164 97 437 144
is_linear=0
shrinkage=0.025


Tree=17
num_leaves=31
num_cat=0
split_feature=5 6 16 7 1 30 17 31 13 31 13 4 12 6 15 6 6 11 18 20 14 8 16 18 8 17 27 14 3 23
split_gain=910.73 93.594 81.6337 61.7135 41.2655 38.973 35.8791 27.491 25.5994 33.3696 24.7926 33.2356 21.27 21.0462 20.2261 20.2016 20.1886 18.946 18.0775 17.2227 16.851 16.6923 26.9032 16.8829 17.0579 17.6353 16.4703 16.1972 15.355 18.2774
threshold=1.0000000180025095e-35 19.500000000000004 50.500000000000007 1.5000000000000002 0.0015430604466633534 19.500000000000004 0.11904761078174865 34.500000000000007 5994784.0000000009 32.500000000000007 18962517.33333334 2472703.0341600538 2739596.0000000005 6.5000000000000009 58.45000000000001 81.500000000000014 11.500000000000002 152812046.50000003 326808.05095083342 0.056387257370082627 74.15000000000002 138096799.50000003 43.500000000000007 21491.928886666672 331097616.00000006 0.11618290126075766 -17076.999999999996 41.550000000000004 2278628.7567460318 751527.00000000012
decision_type=2 2 2 2 2 2 2 2 2 2 2 2 2 2 2 2 2 2 2 2 2 2 2 2 2 2 2 2 2 2
left_child=2 3 10 5 7 12 8 -4 9 21 13 -12 14 -1 -2 -6 19 27 -14 26 -13 22 -5 -23 -25 28 -9 -10 -26 -30
right_child=1 -3 4 6 15 -7 -8 16 17 -11 11 20 18 -15 -16 -17 -18 -19 -20 -21 -22 23 -24 24 25 -27 -28 -29 29 -31
leaf_value=-0.021174722592527478 -0.0076357653431502392 0.042964043492762588 -0.0055427802941279926 -0.007034828726533153 -0.015291411074206736 0.037353136737112651 0.010393491171174437 0.1269465999506178 0.027152548090127598 0.043643726156563638 0.15824654530439194 -0.0066815916637570213 0.026527834922003425 0.024237751143669786 0.017642857340447158 0.16605322268951894 0.067728991633644584 0.039919387446316616 -0.0016753486561102875 0.0020684216498156561 0.10274582038270115 -0.010580405925901246 0.14635614503382804 0.0058482248100417984 0.041227213650967744 0.13671883098389229 0.022634555827031326 0.11711645272367353 0.0096212741333844484 0.071111250850552407
leaf_weight=624.89335901476443 91.191146714612842 126.18099184334278 136.32618960179389 1.2985455952584737 169.54878567159176 25.167886605486274 68.502689206972718 0.98270848765969532 1.8603727165609587 44.914013762027025 0.95044383779168029 9.2683951091021264 38.34499971754849 6.4440523814409962 25.263199439272285 0.38480500131845374 3.940832592546939 61.844197053462267 22.562179615721107 56.788684066385031 0.97174872830510217 12.708281878381966 1.5892601851373909 33.689333634451032 25.151621893048286 0.91892958432435889 25.360304422676563 3.8172322418540716 31.276987014338374 3.3442986458539954
leaf_count=39061 3725 1281 6896 33 9610 699 2011 39 43 815 34 473 937 170 870 4 56 975 668 2303 36 313 37 973 582 21 1036 66 746 92
internal_value=0 0.0237499 -0.0145663 0.0188365 -0.00559635 0.00824034 0.0262134 0.00146606 0.0310859 0.0254859 -0.0200574 0.0168284 0.00410918 -0.0207112 -0.00215191 -0.0148808 0.0124395 0.0439318 0.0160804 0.00981856 0.00370263 0.0180704 0.0773816 0.016471 0.0201134 0.0280319 0.0265258 0.0876381 0.026361 0.015561
internal_weight=0 619.626 1035.86 493.445 393.332 202.529 290.916 223.399 222.413 154.891 642.528 11.1906 177.362 631.337 116.454 169.934 87.0725 67.5218 60.9072 83.1317 10.2401 109.977 2.88781 107.089 94.3812 60.6918 26.343 5.6776 59.7729 34.6213
internal_count=74605 14887 59718 13606 19944 6899 6707 10330 4696 3612 39774 543 6200 39231 4595 9614 3434 1084 1605 3378 509 2797 70 2727 2414 1441 1075 109 1420 838
is_linear=0
shrinkage=0.025


Tree=18
num_leaves=31
num_cat=0
split_feature=5 5 16 7 1 31 23 14 12 29 6 6 30 15 24 14 19 19 8 15 14 8 16 28 23 28 20 6 8 6
split_gain=859.845 85.538 80.6993 57.6468 40.2443 26.4738 26.0518 27.0047 25.3479 24.1543 18.392 17.7479 17.1256 16.9263 15.6147 15.4419 15.4357 15.7138 14.628 14.5798 19.3115 14.3662 14.4632 20.3475 14.3513 15.2725 14.3398 14.1778 14.0604 23.8533
threshold=1.0000000180025095e-35 10.500000000000002 50.500000000000007 1.0000000180025095e-35 0.0025257021958244746 44.500000000000007 307.50000000000006 36.183333333333344 3498255.0000000005 1.0000000180025095e-35 23.500000000000004 6.5000000000000009 5.5000000000000009 76.483333333333348 0.0012831398503336032 46.116666666666674 3056200.1666666674 1279124.6944444447 174166659.00000003 35.783333333333339 50.683333333333344 429000002.50000006 80.500000000000014 46369.000000000007 1599.8333333333337 114.50000000000001 0.042828921235744007 47.500000000000007 312324452.00000006 35.500000000000007
decision_type=2 2 2 2 2 2 2 2 2 2 2 2 2 2 2 2 2 2 2 2 2 2 2 2 2 2 2 2 2 2
left_child=2 3 9 8 5 -4 13 -8 28 12 -7 -11 -1 21 -10 -3 17 27 -14 -13 -21 22 -5 -24 25 -19 -20 -17 -2 -30
right_child=1 15 4 6 -6 10 7 -9 14 11 -12 19 18 -15 -16 16 -18 24 26 20 -22 -23 23 -25 -26 -27 -28 -29 29 -31
leaf_value=-0.025590434612152553 -0.010954631418706446 0.030530114865792053 -0.0032287375365223567 0.019296329994027635 -0.017217861028827986 0.015766405906320835 -0.0062612657697170872 0.021498320797752837 0.025060954805501419 -0.021102306355246972 0.10544035527768417 -0.026127767073162056 0.1124100708594955 0.077399362643221184 -0.0035430933160821108 0.028409270197707333 0.029638670616008694 0.066291214138838345 0.10034393450430806 0.091646493629767706 -0.026016690829238066 0.038214231361908296 0.064704232846574089 -0.027001556080566542 0.047282979157110591 0.11934233414671283 0.0056369507136628354 0.081398025546036881 0.0050175284686066806 0.13206239267572889
leaf_weight=4.6650563366711131 51.009900435805321 70.569356944411993 228.39219777658582 80.049848731607199 124.60668964125216 36.703586377203465 26.992574574425817 116.14875833131373 50.179537013173103 610.32312880642712 1.4874071329832066 2.5074081569910041 1.2624473627656678 4.7446454912424079 15.647085189819334 18.71768864244223 23.838605865836143 13.565424382686617 1.1849247720092533 2.5404543299227957 1.3272683806717394 67.578088976442814 9.2811267711222154 1.8064891062676895 16.440370615571737 4.5221999660134307 6.3755535446107388 3.7958976328372946 56.127423720434308 0.93911926075816055
leaf_count=217 2172 790 11225 1867 7355 1350 1089 2967 1210 39090 14 67 33 61 510 175 224 115 28 57 40 1057 161 29 166 36 242 26 2220 12
internal_value=0 0.0226933 -0.0144084 0.0175296 -0.00548931 -7.13505e-06 0.0240511 0.0162636 0.00603185 -0.019945 0.0192589 -0.0206689 0.0131502 0.0308705 0.0182617 0.0390762 0.0465329 0.0535932 0.033634 0.0208277 0.0512686 0.0294796 0.0230028 0.0497627 0.0641887 0.0795549 0.02048 0.0373434 -0.00141707 0.00710825
internal_weight=0 631.954 1021.38 480.505 391.19 266.583 306.602 143.141 173.903 630.186 38.191 616.698 13.488 163.46 65.8266 151.45 80.8802 57.0416 8.82293 6.37513 3.86772 158.716 91.1375 11.0876 34.528 18.0876 7.56048 22.5136 108.076 57.0665
internal_count=74605 14887 59718 13355 19944 12589 7231 4056 6124 39774 1364 39254 520 3175 1720 1532 742 518 303 164 97 3114 2057 190 317 151 270 201 4404 2232
is_linear=0
shrinkage=0.025


Tree=19
num_leaves=31
num_cat=0
split_feature=5 16 5 7 1 31 13 19 12 23 14 14 6 6 2 8 20 9 10 12 24 30 12 12 2 3 19 11 4 25
split_gain=812.633 79.7658 77.0304 52.5434 39.1142 24.7945 24.012 26.8524 23.5933 23.3123 24.9423 20.6157 19.7206 16.8151 25.4762 21.4222 15.9239 17.0602 16.3874 14.6931 14.3118 13.5208 13.2806 20.0685 20.0212 16.2049 13.8889 17.6359 14.7606 23.751
threshold=1.0000000180025095e-35 50.500000000000007 10.500000000000002 1.0000000180025095e-35 0.0025257021958244746 44.500000000000007 18962517.33333334 3327901.0000000005 3498255.0000000005 307.50000000000006 36.183333333333344 74.15000000000002 6.5000000000000009 4.5000000000000009 0.27998534993139185 379166671.50000006 0.055848237601423892 1490.5000000000002 4.5000000000000009 21576011.500000004 0.0012831398503336032 19.500000000000004 7116079.5000000009 9999999.5000000019 0.24701780171876694 1132158.4759085213 3285770.3571428577 302440280.50000006 1781075.8055555548 0.0014473875662759656
decision_type=2 2 2 2 2 2 2 2 2 2 2 2 2 2 2 2 2 2 2 2 2 2 2 2 2 2 2 2 2 2
left_child=1 6 3 8 5 -3 12 -8 21 16 -11 -9 -1 -7 -15 -16 17 -5 -18 -4 -10 -2 26 24 25 -24 27 -12 -29 -30
right_child=2 4 19 9 -6 13 7 11 20 10 22 -13 -14 14 15 -17 18 -19 -20 -21 -22 -23 23 -25 -26 -27 -28 28 29 -31
leaf_value=-0.020982708177571096 -0.0043357123041268984 -0.0031578811654580973 0.034325774720299872 0.047476582347489894 -0.017072413588266482 0.010012243337619256 0.068647447893216237 -0.025512266281546771 0.023880203894422025 -0.0061414353280738014 0.005288700921829868 0.11726050621287945 0.022080986847711676 0.019500345916833733 0.045108209312654919 0.18711783628650658 0.021620566091537896 0.020718873537132421 0.097880029039192393 0.058936887108784544 -0.00346606753410295 0.025160541422652439 0.098222455693474917 0.023114122844472604 0.14335848705239096 0.014422111423975549 -0.0077114510594130485 0.053481046856515981 0.0081857866945653415 0.060224152985577463
leaf_weight=600.06452361587435 97.127715842798352 227.68794695474207 138.8000740557909 45.339152069762349 122.55251946859062 30.759136661887169 3.9678164981305581 6.6800068784505129 51.329106524586678 26.83329720236361 30.432994090020657 0.69816698879003514 6.720695147290825 5.4378972258418781 1.3698069117963316 1.2883311975747345 98.530770719051361 22.176818927749991 1.7932281047105778 17.02022098004818 15.595596147701142 10.792133765295146 2.3838588409125796 24.546633468940854 1.759719608351588 3.6511882003396749 13.6493918094784 12.172538263723252 22.589811187237505 7.2380868829786769
leaf_count=39061 4032 11225 1409 692 7355 1141 151 368 1210 1089 974 24 170 156 29 38 2019 440 24 123 510 372 30 437 30 67 397 233 607 192
internal_value=0 -0.0142502 0.0217109 0.016824 -0.00538277 -8.04132e-06 -0.019832 0.0162018 0.00584583 0.0229546 0.0156217 -0.0120023 -0.0205057 0.0184497 0.0505062 0.113937 0.0293008 0.0386875 0.0229837 0.037014 0.0175076 -0.00138605 0.020553 0.0342116 0.0691588 0.0475235 0.0154214 0.0197806 0.0302812 0.0208135
internal_weight=0 1007.23 643.762 487.942 389.096 266.543 618.131 11.346 174.845 313.097 145.258 7.37817 606.785 38.8552 8.09604 2.65814 167.84 67.516 100.324 155.82 66.9247 107.92 118.424 32.3414 7.79477 6.03505 86.0828 72.4334 42.0004 29.8279
internal_count=74605 59718 14887 13355 19944 12589 39774 543 6124 7231 4056 392 39231 1364 223 67 3175 1132 2043 1532 1720 4404 2967 564 127 97 2403 2006 1032 799
is_linear=0
shrinkage=0.025


Tree=20
num_leaves=31
num_cat=0
split_feature=5 16 6 7 24 30 17 13 3 16 12 31 6 6 15 9 9 12 15 20 28 11 27 13 20 20 15 10 28 23
split_gain=768.593 78.8081 70.8919 47.0867 38.1873 32.8661 28.0811 23.3369 24.0997 21.6795 20.0181 22.9579 19.5474 19.1113 18.7739 18.0842 19.3454 17.2693 18.5603 16.0036 23.0289 52.6967 20.7393 20.3319 27.012 28.1765 23.5839 22.7875 26.7078 16.8439
threshold=1.0000000180025095e-35 50.500000000000007 19.500000000000004 1.5000000000000002 0.0013529399974183275 19.500000000000004 0.11904761078174865 18962517.33333334 2595934.1743589747 64.500000000000014 3111189.0000000005 32.500000000000007 89.000000000000014 6.5000000000000009 47.583333333333343 1619.5000000000002 588.50000000000011 2739596.0000000005 58.45000000000001 0.06707031699502107 151985.00000000003 407347221.50000006 -20997.999999999996 6898418.333333334 0.049593772047494052 0.052279750444130989 61.016666666666673 2.5000000000000004 692.50000000000011 1752039.6666666667
decision_type=2 2 2 2 2 2 2 2 2 2 2 2 2 2 2 2 2 2 2 2 2 2 2 2 2 2 2 2 2 2
left_child=1 7 3 5 9 17 10 13 -9 -3 11 -5 -6 -1 -13 16 -16 18 -2 20 22 -22 -11 -24 -25 -26 27 -27 -29 -21
right_child=2 4 -4 6 12 -7 -8 8 -10 19 -12 14 -14 -15 15 -17 -18 -19 -20 29 21 -23 23 24 25 26 -28 28 -30 -31
leaf_value=-0.020883728899798691 -0.0075532913842967777 -0.0057169008134377872 0.036776164522236532 0.015637085696045726 -0.014885738515607217 0.033119489988684907 0.0089394762023895877 0.11013965277468635 0.0017056577489050024 0.10634633710353568 0.036989644443013996 0.00417687283945625 0.16242337465891085 0.021098669897177829 0.032237107948100474 0.012058056039917713 0.073501666641362567 0.013939079590585143 0.016417792380566676 -0.0031770151256882272 0.28740417921165268 0.033375171403690611 0.0051147829605835381 -0.016708004492380316 0.21224330850358708 0.015542175086158039 -0.012840114391951665 0.05870648652619638 0.25199865543596561 0.086971522602512175
leaf_weight=587.98803759086877 90.724409790709615 121.26216718554497 137.09926560893655 113.12849590554833 163.06039099022746 26.909616395831108 71.194053599610925 1.46800230257213 10.058040615171192 1.5116645675152529 80.395720589905977 8.9616661351174098 0.38953236490487952 6.8559942021965972 13.469485305249693 8.3011325336992723 15.017624029889701 64.018576465547085 25.965732928365469 46.430325152352452 0.63895084336399977 2.536488538607955 41.39127485640347 2.7649148833006603 0.83926662802696217 1.2091679554432633 1.9218939431011675 0.88698487915098645 0.90021391026675701 1.3325859736651171
leaf_count=39061 3725 6342 1281 2731 9423 699 2011 44 499 56 1202 195 4 170 223 133 212 1605 870 1884 28 107 1713 105 29 51 71 31 35 65
internal_value=0 -0.0140914 0.0207902 0.0165599 -0.00527837 0.0073434 0.0227231 -0.0197171 0.0155162 0.00143488 0.0268244 0.0216805 -0.0144632 -0.0203999 0.0366244 0.0445287 0.0539907 0.00350504 -0.00221928 0.00990703 0.0191523 0.08449 0.0151178 0.0123549 0.0475184 0.0783616 0.0555156 0.0993595 0.156068 -0.00066187
internal_weight=0 993.446 655.186 518.087 387.076 207.618 310.468 606.37 11.526 223.626 239.274 158.878 163.45 594.844 45.7499 36.7882 28.4871 180.709 116.69 102.364 54.6008 3.17544 51.4254 49.9137 8.52244 5.75753 4.91826 2.99637 1.7872 47.7629
internal_count=74605 59718 14887 13606 19944 6899 6707 39774 543 10517 4696 3494 9427 39231 763 568 435 6200 4595 4175 2226 135 2091 2035 322 217 188 117 66 1949
is_linear=0
shrinkage=0.025


Tree=21
num_leaves=31
num_cat=0
split_feature=5 16 5 7 1 6 29 15 31 12 4 1 23 14 6 30 21 16 17 27 29 20 9 20 14 4 15 11 17 19
split_gain=727.543 77.7994 64.5879 44.4111 37.4206 23.1968 23.1585 21.6398 21.3852 20.5417 30.501 27.1748 20.339 22.0051 16.1442 15.4888 15.4112 14.8877 15.46 18.4528 26.5593 14.6896 16.4824 14.4656 13.4142 22.2604 12.9754 13.2766 15.3528 12.8461
threshold=1.0000000180025095e-35 50.500000000000007 10.500000000000002 1.0000000180025095e-35 0.0025257021958244746 6.5000000000000009 1.0000000180025095e-35 30.383333333333336 24.500000000000004 26965785.500000004 2431724.4166666674 0.00040786030118784383 307.50000000000006 36.183333333333344 6.5000000000000009 5.5000000000000009 21816177.500000004 68.500000000000014 0.11618290126075766 -9254.9999999999982 63730.00955000001 0.056831829112836914 1490.5000000000002 0.053706556074059206 32.150000000000006 2570077.7139309742 46.283333333333339 141666664.00000003 0.18929765301826817 1245533.9545454548
decision_type=2 2 2 2 2 2 2 2 2 2 2 2 2 2 2 2 2 2 2 2 2 2 2 2 2 2 2 2 2 2
left_child=1 6 3 7 5 9 15 -2 -9 17 11 -11 16 -14 -8 -1 21 -3 19 20 -19 22 -5 -7 25 -10 27 28 -4 -17
right_child=2 4 26 12 -6 23 14 8 24 10 -12 -13 13 -15 -16 29 -18 18 -20 -21 -22 -23 -24 -25 -26 -27 -28 -29 -30 -31
leaf_value=-0.025573532884931839 -0.012861960336585028 -0.0075857250393336802 0.051313023729548483 0.042533449133977178 -0.016822244939329642 0.11754573083794949 -0.020809417122399816 -0.0084774917994808949 0.011363356306862218 0.24203596008940065 0.015953893521699233 0.015864193104839677 -0.0062447267723905308 0.018690326508880629 0.018058636883473877 0.11200560357779735 0.11477595214371712 0.18230508087488467 -0.011163202119496708 0.0097548704645549177 0.010842476161707623 0.019830407142379845 0.017339862281561487 0.025735064200646592 0.013495490403977115 0.17338576444344039 0.040652007645171233 0.017814032455540928 0.017713632379879059 0.020328770676746967
leaf_weight=4.4780152160674325 32.967825861647725 160.49907024763525 21.575165078043938 50.892963470891118 119.15701465960592 1.2095816526561964 574.45465996582061 31.889118198305368 1.3358746487647288 0.7450311891734589 12.598858416080473 0.59894268028438091 26.965371262282133 123.09734863601625 6.7575510554015628 1.0827510468661774 1.2342283353209484 0.96142659336328451 24.194545764476061 54.365412062034011 1.3680368158966301 99.468071117997169 23.829345464706421 9.4699421711266023 110.05290107242763 0.87851848825812329 81.299351200461388 46.755273498594761 14.024930868297814 8.1143399029970151
leaf_count=217 1326 8440 222 735 7355 24 39090 1305 46 21 517 21 1089 2967 164 22 22 36 1032 2241 53 1964 454 204 3416 31 685 480 145 281
internal_value=0 -0.0139331 0.0199261 0.0154845 -0.00517937 3.59408e-05 -0.0196009 0.00541061 0.00958945 -0.00147389 0.0280307 0.141242 0.0209665 0.0142096 -0.0203575 0.0125564 0.0267465 -0.0031781 0.00556741 0.0127072 0.0816093 0.0261228 0.0344991 0.0361337 0.0147213 0.0756427 0.033567 0.0265729 0.0380763 0.0311217
internal_weight=0 980.055 666.266 502.612 385.168 266.011 594.887 177.124 144.156 255.331 13.9428 1.34397 325.487 150.063 581.212 13.6751 175.425 241.388 80.8894 56.6949 2.32946 174.19 74.7223 10.6795 112.267 2.21439 163.655 82.3554 35.6001 9.19709
internal_count=74605 59718 14887 13355 19944 12589 39774 6124 4798 12361 559 42 7231 4056 39254 520 3175 11802 3362 2330 89 3153 1189 228 3493 77 1532 847 367 303
is_linear=0
shrinkage=0.025


Tree=22
num_leaves=31
num_cat=0
split_feature=5 16 6 23 1 15 16 13 19 11 31 14 6 19 9 28 27 27 6 2 8 12 24 7 6 17 17 25 21 0
split_gain=689.093 76.7909 59.789 39.9048 36.3266 27.3023 23.0385 22.6889 21.8386 21.7266 21.7112 18.2332 18.0297 15.0753 14.5129 21.9307 14.4493 32.4853 14.3222 19.9755 14.5717 13.9479 13.2605 13.0521 14.3913 12.6418 12.4633 14.9596 19.1993 17.958
threshold=1.0000000180025095e-35 50.500000000000007 19.500000000000004 307.50000000000006 0.0025257021958244746 36.716666666666676 71.500000000000014 18962517.33333334 3327901.0000000005 622226405.50000012 44.500000000000007 74.15000000000002 6.5000000000000009 3285770.3571428577 1943.5000000000002 278084.50000000006 92730.500000000015 60424.500000000007 4.5000000000000009 0.27998534993139185 379166671.50000006 14108959.000000002 0.0098016333521544919 5.5000000000000009 109.00000000000001 0.19230767988524475 0.097823396272754951 2.2936068842870371e-05 55787.000000000007 35413.426340000005
decision_type=2 2 2 2 2 2 2 2 2 2 2 2 2 2 2 2 2 2 2 2 2 2 2 2 2 2 2 2 2 2
left_child=1 7 3 26 10 -5 13 12 -9 -8 22 -10 -1 14 21 16 17 -16 -12 -20 -21 -7 -3 24 25 -4 -2 -28 -29 -30
right_child=2 4 23 5 -6 6 9 8 11 -11 18 -13 -14 -15 15 -17 -18 -19 19 20 -22 -23 -24 -25 -26 -27 27 28 29 -31
leaf_value=-0.02068455315895093 0.028124768771547362 -0.0032637912067476405 0.02861072217334068 -0.0030414877582220922 -0.016674110546317105 0.0075492273586963785 0.034634645190353537 0.058834534537841425 -0.02549795890855654 0.0002217357064547953 0.0091542565795139936 0.10277836323342644 0.019393543219206812 -0.004667476295089395 0.030173331961207285 0.17126754968935054 -0.0023952029753738242 0.19666501526569349 0.017774690255617311 0.040667187534402807 0.15097071883575319 0.032939415148461638 0.12644979003728085 0.042196796409603707 0.065445336885188166 0.0012560510021151676 -0.0066424984590456142 0.030267099091396511 0.04986650431735877 -0.009229696667857723
leaf_weight=564.92592842690647 136.10533956810832 225.39009926095605 64.487597677856684 79.974224811419845 117.23452656995505 107.71163230203092 49.305710656568408 4.4200174529105407 6.4470287263393402 14.941114028915761 31.482996199280024 0.77589581161737431 7.1036507207900277 38.626464020460844 3.9874500706791842 0.75999960489571172 4.2213396839797497 0.897277696058154 5.6381181944161636 1.4490648601204159 1.5483697224408386 15.463838532567022 0.49364913068711658 60.988058730959892 5.6563517451286307 12.626521058380602 15.164126981049774 44.532287754118443 3.9294771291315582 17.645868791267276
leaf_count=39061 2216 11198 620 3069 7355 3263 1070 151 368 323 1141 24 170 1251 103 21 118 23 156 29 38 293 27 492 35 134 348 984 91 433
internal_value=0 -0.0137748 0.0191124 0.015255 -0.00508009 0.00958188 0.0138611 -0.0194836 0.0150657 0.0266316 2.97092e-05 -0.0117184 -0.0201869 0.00908178 0.0130737 0.0422489 0.0314809 0.0607563 0.0169774 0.0454984 0.0976461 0.0107368 -0.00298031 0.0334212 0.026955 0.0241317 0.023499 0.0157523 0.0208894 0.00153338
internal_weight=0 966.909 677.025 533.266 383.237 315.889 235.915 583.673 11.6429 64.2468 266.002 7.22292 572.03 171.668 133.042 9.86607 9.10607 4.88473 40.1185 8.63555 2.99743 123.175 225.884 143.759 82.7705 77.1141 217.377 81.2718 66.1076 21.5753
internal_count=74605 59718 14887 13606 19944 9534 6465 39774 543 1393 12589 392 39231 5072 3821 265 244 126 1364 223 67 3556 11225 1281 789 754 4072 1856 1508 524
is_linear=0
shrinkage=0.025


Tree=23
num_leaves=31
num_cat=0
split_feature=6 16 6 7 24 12 8 12 25 18 1 10 4 31 11 13 13 18 17 9 9 21 4 9 29 17 1 23 19 31
split_gain=653.561 71.0081 60.1702 47.2039 42.4046 26.808 27.5894 42.9654 47.2118 67.7631 24.7797 23.4701 24.8809 22.0209 21.7701 23.2467 21.0163 21.6082 18.9771 21.5608 41.0937 32.9614 43.048 32.5163 82.5194 22.8934 21.4192 17.6706 28.4405 16.2798
threshold=4.5000000000000009 50.500000000000007 10.500000000000002 1.0000000180025095e-35 0.0013529399974183275 26543289.000000004 575070457.50000012 36546390.000000007 0.00042206094690131808 25278.016125000006 1.0000000180025095e-35 3.5000000000000004 2512302.5317791011 43.500000000000007 300278110.00000006 6087207.3333333349 9302226.6666666698 31496.008365833335 0.11627906998828197 911.50000000000011 1.0000000180025095e-35 1239714.5000000002 2918913.3217592617 745.50000000000011 288623.97012500005 0.09433963123736179 0.0017074748718440074 98858.166666666672 1978674.2666666668 18.500000000000004
decision_type=2 2 2 2 2 2 2 2 2 2 2 2 2 2 2 2 2 2 2 2 2 2 2 2 2 2 2 2 2 2
left_child=1 10 3 11 5 18 7 8 9 -7 -1 -2 27 -8 15 29 17 -17 19 20 -3 26 23 25 -25 -23 -22 -13 -29 -5
right_child=2 4 -4 14 -6 6 13 -9 -10 -11 -12 12 -14 -15 -16 16 -18 -19 -20 -21 21 22 -24 24 -26 -27 -28 28 -30 -31
leaf_value=0.0168922396935407 0.0013064897143621748 0.002369632238228342 0.02950597476243208 -0.014989703247946802 -0.015172674447857588 0.10642629309025586 -0.025611066692731423 0.0025378259868745505 0.0090658950605549196 0.47097327053044191 -0.019894525283641384 0.045346471694014019 0.0041984013848616929 0.046813115217624129 0.025703246518767799 0.13398627464479074 0.015562263625720552 0.042606646134843329 -0.0120880452234427 -0.0066167149520889191 0.020486316881056052 0.0018554662945182928 0.0027634796817751529 0.46200724501327672 0.054254366103601653 0.18313020643849165 0.16692815728692709 0.062915733615127215 0.26777324255156276 0.011085996919091699
leaf_weight=11.68079273868352 175.13876308500767 60.740843026898801 209.26190515421331 18.377680888399482 155.56568288989365 0.7514807805418966 4.7774260034784657 1.7641269331797955 0.7220034347847103 0.55335533060133457 565.47000698000193 3.8292578123509866 6.603442489169538 5.8209109995514154 165.20845272392035 2.0104426294565227 17.760134803131223 8.2714596930891258 61.243210048414767 61.985908036120236 16.211708378046758 0.90624201390892201 1.7636955725029109 0.61508517898619153 0.62580752279609442 0.83812732622027397 0.64924151729792257 1.1215595342218874 0.68058087863028038 80.569765128195286
leaf_count=416 6801 2787 2089 609 9212 23 219 68 35 19 39342 87 195 180 2862 29 349 151 3004 3012 657 36 82 24 27 34 31 31 20 2174
internal_value=0 -0.0136445 0.0183205 0.0134397 -0.00518314 0.00188162 0.03487 0.0927509 0.171271 0.261023 -0.01915 0.00364507 0.0371212 0.0141664 0.0197205 0.0119372 0.0320297 0.0604743 -0.000427362 0.00452036 0.0129033 0.0425112 0.100689 0.158544 0.256369 0.0889536 0.0261252 0.0757269 0.14028 0.00624291
internal_weight=0 952.686 688.833 479.572 375.535 219.969 14.3893 3.79097 2.02684 1.30484 577.151 187.374 12.2348 10.5983 292.198 126.989 28.042 10.2819 205.58 144.337 82.3508 21.6099 4.74896 2.98526 1.24089 1.74437 16.8609 5.6314 1.80214 98.9474
internal_count=74605 59208 15397 13308 19450 10238 544 145 77 42 39758 7134 333 399 6174 3312 529 180 9694 6690 3678 891 203 121 51 70 688 138 51 2783
is_linear=0
shrinkage=0.025


Tree=24
num_leaves=31
num_cat=0
split_feature=5 16 5 23 1 12 6 13 31 19 29 28 6 14 15 2 19 11 21 27 3 30 6 1 2 30 12 21 13 1
split_gain=622.567 74.6167 50.9057 38.9488 34.5133 25.3244 25.3664 22.0148 19.8723 19.3131 17.6581 18.6729 16.9257 16.3883 15.7678 15.5715 15.9044 34.5196 32.6159 23.221 14.7031 17.137 14.5213 16.3677 14.182 24.1937 14.1021 17.8134 16.5906 14.0152
threshold=1.0000000180025095e-35 50.500000000000007 5.5000000000000009 1.0000000180025095e-35 0.0025257021958244746 3498255.0000000005 36.500000000000007 18962517.33333334 37.500000000000007 3327901.0000000005 129514.46296000002 9.5000000000000018 6.5000000000000009 74.15000000000002 60.516666666666673 0.1563707881556323 1146485.5666666671 394476188.00000006 1466804.5000000002 33725.000000000007 1546174.9595265847 9.5000000000000018 6.5000000000000009 0.00014202776778455859 0.16624184565178726 13.500000000000002 35195471.500000007 4658146.5000000009 52406098.166666679 5.314274594214639e-05
decision_type=2 2 2 2 2 2 2 2 2 2 2 2 2 2 2 2 2 2 2 2 2 2 2 2 2 2 2 2 2 2
left_child=1 7 3 24 8 6 -4 12 -3 -9 -7 20 -1 -11 -5 16 -10 18 19 -18 -12 -22 26 -24 25 -2 -17 28 29 -28
right_child=2 4 5 14 -6 10 -8 9 15 13 11 -13 -14 -15 -16 22 17 -19 -20 -21 21 -23 23 -25 -26 -27 27 -29 -30 -31
leaf_value=-0.020486596267507276 0.022811527729241922 -0.0044888675054617997 0.014384438130494798 -0.0013703041794391928 -0.016420352274020649 0.036424053273546475 0.036087230703052225 0.053957826635717326 -0.025832389035501252 -0.025485687773318933 0.09376073884613266 0.010869062397574372 0.017640900042388798 0.09161492646546858 0.015698524340406937 -0.0030916332320762335 0.17294995497578242 0.022242997827233747 0.26949337866083772 0.0095222497552338407 0.076766912660722927 0.0063278157143664823 0.11172320204130584 0.013019526126447679 0.013921765949861088 0.067300406812743657 0.16098109403890773 0.15812640338851103 -0.010997151908367808 0.021907231185414357
leaf_weight=543.63407097291201 36.498691776767373 185.37236571498215 193.52139702439308 139.63660882040858 114.06398427765816 114.44322672300041 40.746705636382103 4.6851593889296037 2.6437520440667894 6.2374557880684733 3.0201942920684806 41.043801026418805 7.375677239149808 0.84857724606990803 44.638595899567008 52.014141771942377 0.88057795539498318 12.447375258430837 0.67726103402674187 1.4190688040107486 3.2863485310226661 6.2909849472343922 1.600324511528014 3.0535988323390484 63.634234709665179 9.6621823068708164 0.8006109856069078 0.67943089641630638 3.3653592653572559 1.0427326597273348
leaf_count=39061 652 9615 3974 5014 7355 1462 314 151 93 368 26 722 170 24 1148 2078 31 439 24 54 33 66 18 49 1363 113 19 25 112 32
internal_value=0 -0.013474 0.0176935 0.00978737 -0.00491577 0.0234719 0.0181592 -0.0192535 1.75975e-05 0.0145761 0.0308765 0.0190408 -0.0199762 -0.0114625 0.00276443 0.0103789 0.0308223 0.040533 0.117009 0.0721018 0.045665 0.0304982 0.00447429 0.0469603 0.0215744 0.0321237 0.00105945 0.037729 0.0220241 0.0823105
internal_weight=0 942.842 696.423 294.07 380.061 402.353 234.268 562.781 265.997 11.7712 168.085 53.6413 551.01 7.08603 184.275 80.6242 18.068 15.4243 2.97691 2.29965 12.5975 9.57733 62.5562 4.65392 109.795 46.1609 57.9023 5.88813 5.2087 1.84334
internal_count=74605 59718 14887 8290 19944 6597 4288 39774 12589 543 2309 847 39231 392 6162 2974 641 548 109 85 125 99 2333 67 2128 765 2266 188 163 51
is_linear=0
shrinkage=0.025


Tree=25
num_leaves=31
num_cat=0
split_feature=5 16 6 24 7 30 29 17 6 6 12 8 13 18 30 17 9 9 21 0 15 24 23 6 13 31 17 26 11 30
split_gain=590.683 73.5702 46.9689 33.4934 33.3568 27.0519 21.6807 20.3108 18.6583 16.3286 15.5344 24.5685 31.5256 27.1121 15.5216 14.9775 16.1078 23.3518 28.9887 43.0337 14.9002 15.8417 21.8633 14.2993 14.2768 20.9389 14.2679 17.8346 14.1332 13.8263
threshold=1.0000000180025095e-35 50.500000000000007 19.500000000000004 0.0014244823360080171 1.5000000000000002 19.500000000000004 1.0000000180025095e-35 0.11904761078174865 89.000000000000014 10.500000000000002 26965785.500000004 531879165.00000006 42611316.500000007 61910.620157500009 6.5000000000000009 0.11627906998828197 911.50000000000011 1.0000000180025095e-35 1292454.5000000002 247346.06845833332 46.283333333333339 1.7085314711867085e-06 1.0000000180025095e-35 6.5000000000000009 5994784.0000000009 32.500000000000007 0.092874619524309712 231892.00000000003 162010865.00000003 5.5000000000000009
decision_type=2 2 2 2 2 2 2 2 2 2 2 2 2 2 2 2 2 2 2 2 2 2 2 2 2 2 2 2 2 2
left_child=1 6 4 9 5 14 29 24 -5 10 15 12 13 -12 -2 16 17 -3 -19 -20 21 22 -16 -8 25 -6 -21 -28 -26 -1
right_child=2 3 -4 8 7 -7 23 -9 -10 -11 11 -13 -14 -15 20 -17 -18 18 19 26 -22 -23 -24 -25 28 -27 27 -29 -30 -31
leaf_value=-0.025571401117042439 -0.019201032910308516 0.0023031202360113199 0.029280776471121619 -0.014435474035527723 0.01226308226381838 0.028342936866177004 -0.020407163459507122 0.0070578658240399083 0.15756785452688182 0.038287724275421015 0.21642538438747977 0.0067863218894970564 -0.025727191450452536 0.044413460766739875 0.011710690564470938 -0.011939730808386079 -0.0071879693914146843 0.016238881378709061 0.21178583563108547 0.0060021183546700085 0.011639607238246487 -0.0060861252307133264 0.14372261481979517 0.014950828991303976 0.062534754031061041 0.030844862199298297 0.036489573416124056 0.22736427289861774 0.027089793328507507 0.028198931145004026
leaf_weight=4.3253761371597639 18.622826348990202 63.649466642178595 152.73146130517125 149.90061052143574 125.73253612034023 29.166802391409874 531.0971659515053 74.993974294513464 0.39520552009344001 7.1927310992032281 1.2331605572253463 10.738480188883839 1.1086076479405162 1.0692930510267613 3.2834043558686963 62.545151355676353 59.972789712250233 15.520513840019705 1.261483403854071 2.3688782751560216 91.830343954265118 72.112577052786946 1.0300875119864938 7.2461171615868798 7.7617744524031869 54.257484259083867 0.80392218381166436 0.49391421116888523 74.666067371144891 9.6725646592676622
leaf_count=217 683 3000 1281 9214 2797 699 39090 2011 3 107 31 422 46 45 75 3183 3037 662 39 103 2668 2740 34 164 118 815 32 20 966 303
internal_value=0 -0.0133156 0.0170074 -0.00482136 0.0136205 0.00595047 -0.0191326 0.0185317 -0.0139832 0.00121914 1.14185e-05 0.0253529 0.0838029 0.136541 0.00245561 -0.00172402 0.0027109 0.00977006 0.0330119 0.0858358 0.0048526 -0.00330239 0.0432359 -0.0199312 0.0218106 0.0178645 0.0425044 0.10913 0.0304274 0.0115839
internal_weight=0 930.595 706.189 378.254 553.458 216.046 552.341 337.412 150.296 227.958 220.766 14.1495 3.41106 2.30245 186.879 206.616 144.071 84.0982 20.4487 4.9282 168.256 76.4261 4.31349 538.343 262.418 179.99 3.66671 1.29784 82.4278 13.9979
internal_count=74605 59718 14887 19944 13606 6899 39774 6707 9217 10727 10620 544 122 76 6200 10076 6893 3856 856 194 5517 2849 109 39254 4696 3612 155 52 1084 520
is_linear=0
shrinkage=0.025


Tree=26
num_leaves=31
num_cat=0
split_feature=6 16 6 24 7 0 12 10 4 3 20 17 8 11 13 13 17 9 9 21 4 29 24 24 18 11 20 2 28 2
split_gain=560.909 67.8502 47.5582 39.0881 38.0278 23.4063 22.2572 20.181 20.3037 20.127 25.1422 38.9592 23.2959 18.2518 18.8789 17.2806 17.2303 19.0645 33.3385 21.1815 29.6053 28.1108 17.3308 34.7512 16.084 16.0553 15.3365 15.1718 15.1008 18.7643
threshold=4.5000000000000009 50.500000000000007 10.500000000000002 0.0013529399974183275 1.0000000180025095e-35 1.0000000180025095e-35 26543289.000000004 3.5000000000000004 2512302.5317791011 3930959.3944444447 0.077997971972667723 0.072814609480431072 531879165.00000006 300278110.00000006 6087207.3333333349 9302226.6666666698 0.11627906998828197 911.50000000000011 1.0000000180025095e-35 1025055.5000000001 2918913.3217592617 67985.612900000022 0.00098189928178576947 0.0010553466849492759 31496.008365833335 49424992.000000007 0.093224168810005961 0.15465784041627403 120235.50000000001 0.15300906313428561
decision_type=2 2 2 2 2 2 2 2 2 2 2 2 2 2 2 2 2 2 2 2 2 2 2 2 2 2 2 2 2 2
left_child=1 5 4 6 7 -1 16 27 26 10 11 -8 -13 14 -6 24 17 18 -3 22 21 -21 -20 -24 -16 -11 -9 -2 29 -23
right_child=2 3 -4 -5 13 -7 9 8 -10 25 -12 12 -14 -15 15 -17 -18 -19 19 20 -22 28 23 -25 -26 -27 -28 -29 -30 -31
leaf_value=0.014325656988819192 0.015484652789728427 0.0022158013355919686 0.025970995305336114 -0.014775533603266762 0.0053176441263359459 -0.01959165081855439 0.014949170437866402 0.043188096099933161 0.0033772928740532595 0.10630019122327933 -0.011764886507245482 0.2654737270248293 0.10318584914931739 0.022791522587162525 0.11065167320137376 0.013159963425764318 -0.011722395818096282 -0.0063897656411801007 0.012258190441179422 0.24122266952106949 -0.0021423943405516964 0.16598293549830018 0.21544591855457368 0.010577107796665507 0.037047679384015882 -0.0024703311911585292 0.13371066143214141 -0.0026812321066774646 0.16046239650652558 0.011520215646283392
leaf_weight=13.027134764939545 36.109917902387679 61.057954776100814 221.20842517353594 149.9738119635731 101.71978025697172 533.46276579983532 1.8255978832021345 4.6547356341034156 6.7767206635326147 0.94131856318563123 1.7651350386440752 0.93838900700211558 1.3454620596021412 174.29127532616258 2.3400769066065576 18.772037921473384 59.678911851719022 61.257358747534454 14.439744953066116 0.84170891903340717 2.1289336942136288 0.65089805983007032 0.82845448702573721 1.3786355461925266 8.961531996726988 8.5699663273990137 1.5623792596161363 140.68318075686693 1.0725690294057129 2.0078187212347984
leaf_count=441 1136 2787 2089 9212 2783 39317 57 99 195 31 58 21 31 2862 29 349 3004 3012 560 24 93 22 31 57 151 346 39 5665 34 70
internal_value=0 -0.0131829 0.0163315 -0.00492701 0.0120314 -0.0187831 0.00176455 0.00323925 0.0333099 0.0307663 0.0671494 0.101046 0.169867 0.0174829 0.0104625 0.0278642 -0.000408486 0.00422685 0.0119318 0.0373394 0.0748671 0.110718 0.0222309 0.0874768 0.0522879 0.00829454 0.0659367 0.00102914 0.0812791 0.0493353
internal_weight=0 917.193 717.08 370.703 495.872 546.49 220.729 189.787 12.9938 15.3859 5.87458 4.10945 2.28385 306.085 131.793 30.0736 205.343 145.664 84.4067 23.3488 6.70193 4.57299 16.6468 2.20709 11.3016 9.51128 6.21711 176.793 3.73129 2.65872
internal_count=74605 59208 15397 19450 13308 39758 10238 7134 333 544 167 109 52 6174 3312 529 9694 6690 3678 891 243 150 648 88 180 377 138 6801 126 92
is_linear=0
shrinkage=0.025


Tree=27
num_leaves=31
num_cat=0
split_feature=5 16 5 23 1 12 13 6 31 19 6 29 28 15 2 19 8 16 17 0 21 20 28 1 4 15 19 27 8 3
split_gain=535.114 71.3643 41.3763 33.9303 32.1339 21.4891 21.1916 19.5128 17.5883 16.743 15.5539 14.9011 14.8418 13.9526 13.2477 14.0237 26.2268 27.7596 16.4534 12.9652 13.1419 17.2158 22.4686 36.3782 15.2558 17.4238 12.7637 12.7418 12.4315 24.818
threshold=1.0000000180025095e-35 50.500000000000007 5.5000000000000009 1.0000000180025095e-35 0.0025257021958244746 2739596.0000000005 18962517.33333334 36.500000000000007 37.500000000000007 3181660.9151785718 6.5000000000000009 129514.46296000002 9.5000000000000018 40.150000000000006 0.1563707881556323 1146485.5666666671 452384476.00000006 84.500000000000014 0.080645161500334031 5729.0581433333336 143042.50000000003 0.070810283211969693 412.50000000000006 0.00031308162677730209 1545833.7000360754 49.683333333333344 1900017.1750000003 37951.000000000007 393177287.50000006 2438440.2994528622
decision_type=2 2 2 2 2 2 2 2 2 2 2 2 2 2 2 2 2 2 2 2 2 2 2 2 2 2 2 2 2 2
left_child=1 6 3 -2 8 7 10 28 -3 -8 -1 -7 -13 -5 15 -10 17 18 27 -15 21 24 23 -23 25 -21 -24 -17 -4 -30
right_child=2 4 5 13 -6 11 9 -9 14 -11 -12 12 -14 19 -16 16 -18 -19 -20 20 -22 22 26 -25 -26 -27 -28 -29 29 -31
leaf_value=-0.020178333767609594 0.019469612508575942 -0.0042623984693778401 0.0075289072730911986 -0.0077777359120525099 -0.016045240433330384 0.032310532048676968 0.052466967290391658 0.031399781559629879 -0.025842655521511316 -0.008837496702473786 0.015559291892636648 0.03973822968888982 0.009837513688428107 -0.026060821540164515 0.0041537845539753428 0.093006889783621788 0.019377237469658214 0.24327247545233993 0.1608518422699696 -0.02611909181571221 0.0047087409661845546 0.022345131177277024 0.10070523242014558 0.23035522470065706 -0.0029525407175883347 0.069526698081498348 -0.0058758815039608153 -0.025694606690678197 0.036506720815946359 0.0084786443542668889
leaf_weight=513.27480229362845 114.42559955269098 183.37671640142798 118.02569288015366 59.73975445702672 109.66070190537721 122.7671439666301 4.4498282056301814 42.31731603294611 2.6095132771879461 7.4394606808200479 7.7260465268045655 13.579824987798927 43.968530299142003 7.0659597590565673 63.076433146372437 1.0505007840693035 12.637501226738094 0.65016572549939144 0.8018254917114972 1.5959600228816331 97.186658933758736 1.0304307788610452 0.98425772041082416 1.0723017398267982 11.881890900433062 4.6843472979962826 2.4510527718812227 1.2234236821532247 34.029774470254779 47.038263658061624
leaf_count=39061 2128 9615 2552 2440 7355 1492 135 308 93 408 170 127 745 217 2333 32 427 20 22 49 2829 30 27 32 365 107 66 47 476 897
internal_value=0 -0.0130151 0.0158013 0.00873942 -0.00466105 0.0208603 -0.0188953 0.0159831 4.23295e-05 0.014107 -0.0196484 0.0273901 0.0168933 0.00219783 0.00966321 0.0279796 0.0365627 0.0948521 0.0634783 0.0068553 0.00877928 0.0254712 0.0640575 0.128421 0.0137054 0.0452211 0.0246609 0.0291428 0.0127063 0.0202439
internal_weight=0 907.977 723.845 302.118 375.087 421.727 532.89 241.411 265.426 11.8893 521.001 180.315 57.5484 187.693 82.0494 18.9729 16.3634 3.72592 3.07575 127.953 120.887 23.7002 5.53804 2.10273 18.1622 6.28031 3.43531 2.27392 199.094 81.068
internal_count=74605 59718 14887 8290 19944 6597 39774 4233 12589 543 39231 2364 872 6162 2974 641 548 121 101 3722 3505 676 155 62 521 156 93 79 3925 1373
is_linear=0
shrinkage=0.025


Tree=28
num_leaves=31
num_cat=0
split_feature=5 16 5 23 1 13 12 6 6 12 1 1 11 19 6 4 14 2 29 28 14 0 8 11 15 9 30 4 21 25
split_gain=508.288 70.315 38.105 31.4425 31.1627 20.6239 19.4865 17.9083 16.8593 17.2742 16.9433 45.0997 42.4546 15.5847 15.1431 14.1154 22.0554 31.3613 13.371 13.5047 13.3522 13.1752 13.0563 25.4006 11.9192 15.7091 14.755 14.5998 21.1609 19.4041
threshold=1.0000000180025095e-35 50.500000000000007 5.5000000000000009 1.0000000180025095e-35 0.0025257021958244746 18962517.33333334 2739596.0000000005 36.500000000000007 6.5000000000000009 6998714.0000000009 0.00051283915305077438 0.00048183334034705255 388915036.50000006 1726334.8750000002 6.5000000000000009 2285259.4034391544 60.783333333333339 0.17019859294734191 129514.46296000002 9.5000000000000018 37.583333333333343 5729.0581433333336 270000001.50000006 283133925.50000006 58.45000000000001 1846.5000000000002 18.500000000000004 1718610.0883267196 1.0000000180025095e-35 0.0013222686497079111
decision_type=2 2 2 2 2 2 2 2 2 2 2 2 2 2 2 2 2 2 2 2 2 2 2 2 2 2 2 2 2 2
left_child=1 5 3 24 8 14 7 -4 9 -3 11 15 -13 -7 -1 16 17 -11 -8 -20 -5 -22 -19 -24 27 26 -26 28 29 -2
right_child=2 4 6 20 -6 13 18 -9 -10 10 -12 12 -14 -15 -16 -17 -18 22 19 -21 21 -23 23 -25 25 -27 -28 -29 -30 -31
leaf_value=-0.020069119080133341 0.038444845794171095 -0.0044881257315005224 0.012257366341519606 -0.010066859090666125 -0.01589248960334801 0.13650956795950289 0.03075254042261413 0.0300031157746894 0.029106116899594192 0.18664646527342943 -0.0027118383379091276 0.37945831422297538 0.030937344255428708 0.0069871506331973619 0.014959781033435425 0.0077336862058453026 -0.014491240792858809 -0.010086410841775707 0.037724209632988066 0.0095140781661606048 -0.026012524941386256 0.0075574189065524327 0.16805656616945686 -0.02576725933549109 0.033537253276145457 0.00367094302470316 0.089450267011737347 0.0058337549052402968 0.0072580872628988094 0.12324460479208946
